digraph Tree {
node [shape=box, style="rounded", color="black", fontname=helvetica] ;
edge [fontname=helvetica] ;
0 [label="pixel317 <= 1.5\ngini = 0.9\nsamples = 26476\nvalue = [4186, 4586, 4216, 4382, 4179, 3785, 4066, 4435, 4079\n4086]"] ;
1 [label="pixel320 <= 4.5\ngini = 0.9\nsamples = 13330\nvalue = [733, 4546, 3725, 3581, 1042, 1333, 1795, 1981, 1732\n723]"] ;
0 -> 1 [labeldistance=2.5, labelangle=45, headlabel="True"] ;
2 [label="pixel378 <= 159.5\ngini = 0.8\nsamples = 7444\nvalue = [215, 3475, 3437, 1732, 368, 141, 179, 1786, 239, 333]"] ;
1 -> 2 ;
3 [label="pixel514 <= 1.5\ngini = 0.7\nsamples = 3411\nvalue = [209, 103, 2501, 255, 283, 66, 108, 1634, 84, 261]"] ;
2 -> 3 ;
4 [label="pixel157 <= 0.5\ngini = 0.7\nsamples = 1856\nvalue = [161, 82, 640, 226, 174, 42, 22, 1453, 34, 165]"] ;
3 -> 4 ;
5 [label="pixel237 <= 88.0\ngini = 0.5\nsamples = 1324\nvalue = [60, 36, 176, 114, 106, 20, 21, 1437, 19, 159]"] ;
4 -> 5 ;
6 [label="pixel429 <= 81.5\ngini = 0.8\nsamples = 383\nvalue = [30, 31, 113, 63, 106, 13, 21, 145, 13, 69]"] ;
5 -> 6 ;
7 [label="pixel579 <= 6.0\ngini = 0.8\nsamples = 260\nvalue = [29, 31, 87, 55, 16, 8, 21, 137, 9, 22]"] ;
6 -> 7 ;
8 [label="pixel125 <= 14.5\ngini = 0.7\nsamples = 174\nvalue = [0, 30, 42, 23, 11, 6, 10, 134, 8, 15]"] ;
7 -> 8 ;
9 [label="pixel549 <= 19.0\ngini = 0.7\nsamples = 151\nvalue = [0, 20, 21, 21, 11, 6, 5, 134, 6, 15]"] ;
8 -> 9 ;
10 [label="pixel234 <= 8.0\ngini = 0.5\nsamples = 108\nvalue = [0, 20, 14, 0, 5, 0, 0, 122, 3, 7]"] ;
9 -> 10 ;
11 [label="pixel180 <= 106.5\ngini = 0.7\nsamples = 45\nvalue = [0, 20, 7, 0, 2, 0, 0, 33, 0, 5]"] ;
10 -> 11 ;
12 [label="pixel212 <= 253.0\ngini = 0.5\nsamples = 23\nvalue = [0, 20, 0, 0, 2, 0, 0, 4, 0, 5]"] ;
11 -> 12 ;
13 [label="pixel383 <= 31.5\ngini = 0.5\nsamples = 22\nvalue = [0, 20, 0, 0, 2, 0, 0, 4, 0, 2]"] ;
12 -> 13 ;
14 [label="pixel408 <= 228.0\ngini = 0.3\nsamples = 19\nvalue = [0, 20, 0, 0, 1, 0, 0, 1, 0, 2]"] ;
13 -> 14 ;
15 [label="pixel682 <= 220.0\ngini = 0.1\nsamples = 17\nvalue = [0, 20, 0, 0, 0, 0, 0, 1, 0, 0]"] ;
14 -> 15 ;
16 [label="gini = 0.0\nsamples = 16\nvalue = [0, 20, 0, 0, 0, 0, 0, 0, 0, 0]"] ;
15 -> 16 ;
17 [label="gini = 0.0\nsamples = 1\nvalue = [0, 0, 0, 0, 0, 0, 0, 1, 0, 0]"] ;
15 -> 17 ;
18 [label="pixel240 <= 127.0\ngini = 0.4\nsamples = 2\nvalue = [0, 0, 0, 0, 1, 0, 0, 0, 0, 2]"] ;
14 -> 18 ;
19 [label="gini = 0.0\nsamples = 1\nvalue = [0, 0, 0, 0, 1, 0, 0, 0, 0, 0]"] ;
18 -> 19 ;
20 [label="gini = 0.0\nsamples = 1\nvalue = [0, 0, 0, 0, 0, 0, 0, 0, 0, 2]"] ;
18 -> 20 ;
21 [label="pixel434 <= 121.5\ngini = 0.4\nsamples = 3\nvalue = [0, 0, 0, 0, 1, 0, 0, 3, 0, 0]"] ;
13 -> 21 ;
22 [label="gini = 0.0\nsamples = 2\nvalue = [0, 0, 0, 0, 0, 0, 0, 3, 0, 0]"] ;
21 -> 22 ;
23 [label="gini = 0.0\nsamples = 1\nvalue = [0, 0, 0, 0, 1, 0, 0, 0, 0, 0]"] ;
21 -> 23 ;
24 [label="gini = 0.0\nsamples = 1\nvalue = [0, 0, 0, 0, 0, 0, 0, 0, 0, 3]"] ;
12 -> 24 ;
25 [label="pixel354 <= 254.5\ngini = 0.3\nsamples = 22\nvalue = [0, 0, 7, 0, 0, 0, 0, 29, 0, 0]"] ;
11 -> 25 ;
26 [label="pixel433 <= 212.5\ngini = 0.2\nsamples = 19\nvalue = [0, 0, 3, 0, 0, 0, 0, 29, 0, 0]"] ;
25 -> 26 ;
27 [label="pixel692 <= 6.5\ngini = 0.1\nsamples = 18\nvalue = [0, 0, 2, 0, 0, 0, 0, 29, 0, 0]"] ;
26 -> 27 ;
28 [label="pixel463 <= 107.5\ngini = 0.1\nsamples = 17\nvalue = [0, 0, 1, 0, 0, 0, 0, 29, 0, 0]"] ;
27 -> 28 ;
29 [label="pixel606 <= 4.0\ngini = 0.3\nsamples = 4\nvalue = [0, 0, 1, 0, 0, 0, 0, 4, 0, 0]"] ;
28 -> 29 ;
30 [label="gini = 0.0\nsamples = 3\nvalue = [0, 0, 0, 0, 0, 0, 0, 4, 0, 0]"] ;
29 -> 30 ;
31 [label="gini = 0.0\nsamples = 1\nvalue = [0, 0, 1, 0, 0, 0, 0, 0, 0, 0]"] ;
29 -> 31 ;
32 [label="gini = 0.0\nsamples = 13\nvalue = [0, 0, 0, 0, 0, 0, 0, 25, 0, 0]"] ;
28 -> 32 ;
33 [label="gini = 0.0\nsamples = 1\nvalue = [0, 0, 1, 0, 0, 0, 0, 0, 0, 0]"] ;
27 -> 33 ;
34 [label="gini = 0.0\nsamples = 1\nvalue = [0, 0, 1, 0, 0, 0, 0, 0, 0, 0]"] ;
26 -> 34 ;
35 [label="gini = 0.0\nsamples = 3\nvalue = [0, 0, 4, 0, 0, 0, 0, 0, 0, 0]"] ;
25 -> 35 ;
36 [label="pixel660 <= 108.0\ngini = 0.3\nsamples = 63\nvalue = [0, 0, 7, 0, 3, 0, 0, 89, 3, 2]"] ;
10 -> 36 ;
37 [label="pixel388 <= 90.0\ngini = 0.1\nsamples = 56\nvalue = [0, 0, 3, 0, 3, 0, 0, 88, 0, 1]"] ;
36 -> 37 ;
38 [label="pixel375 <= 59.0\ngini = 0.1\nsamples = 55\nvalue = [0, 0, 2, 0, 3, 0, 0, 88, 0, 1]"] ;
37 -> 38 ;
39 [label="pixel403 <= 128.0\ngini = 0.1\nsamples = 53\nvalue = [0, 0, 2, 0, 1, 0, 0, 88, 0, 1]"] ;
38 -> 39 ;
40 [label="pixel466 <= 254.0\ngini = 0.1\nsamples = 52\nvalue = [0, 0, 2, 0, 0, 0, 0, 88, 0, 1]"] ;
39 -> 40 ;
41 [label="pixel571 <= 252.5\ngini = 0.0\nsamples = 51\nvalue = [0, 0, 1, 0, 0, 0, 0, 88, 0, 1]"] ;
40 -> 41 ;
42 [label="pixel179 <= 112.0\ngini = 0.0\nsamples = 45\nvalue = [0, 0, 0, 0, 0, 0, 0, 78, 0, 1]"] ;
41 -> 42 ;
43 [label="gini = 0.0\nsamples = 25\nvalue = [0, 0, 0, 0, 0, 0, 0, 42, 0, 0]"] ;
42 -> 43 ;
44 [label="pixel631 <= 5.5\ngini = 0.1\nsamples = 20\nvalue = [0, 0, 0, 0, 0, 0, 0, 36, 0, 1]"] ;
42 -> 44 ;
45 [label="gini = 0.0\nsamples = 15\nvalue = [0, 0, 0, 0, 0, 0, 0, 31, 0, 0]"] ;
44 -> 45 ;
46 [label="pixel178 <= 70.5\ngini = 0.3\nsamples = 5\nvalue = [0, 0, 0, 0, 0, 0, 0, 5, 0, 1]"] ;
44 -> 46 ;
47 [label="gini = 0.0\nsamples = 1\nvalue = [0, 0, 0, 0, 0, 0, 0, 0, 0, 1]"] ;
46 -> 47 ;
48 [label="gini = 0.0\nsamples = 4\nvalue = [0, 0, 0, 0, 0, 0, 0, 5, 0, 0]"] ;
46 -> 48 ;
49 [label="pixel490 <= 81.5\ngini = 0.2\nsamples = 6\nvalue = [0, 0, 1, 0, 0, 0, 0, 10, 0, 0]"] ;
41 -> 49 ;
50 [label="gini = 0.0\nsamples = 1\nvalue = [0, 0, 1, 0, 0, 0, 0, 0, 0, 0]"] ;
49 -> 50 ;
51 [label="gini = 0.0\nsamples = 5\nvalue = [0, 0, 0, 0, 0, 0, 0, 10, 0, 0]"] ;
49 -> 51 ;
52 [label="gini = 0.0\nsamples = 1\nvalue = [0, 0, 1, 0, 0, 0, 0, 0, 0, 0]"] ;
40 -> 52 ;
53 [label="gini = 0.0\nsamples = 1\nvalue = [0, 0, 0, 0, 1, 0, 0, 0, 0, 0]"] ;
39 -> 53 ;
54 [label="gini = 0.0\nsamples = 2\nvalue = [0, 0, 0, 0, 2, 0, 0, 0, 0, 0]"] ;
38 -> 54 ;
55 [label="gini = 0.0\nsamples = 1\nvalue = [0, 0, 1, 0, 0, 0, 0, 0, 0, 0]"] ;
37 -> 55 ;
56 [label="pixel176 <= 11.0\ngini = 0.7\nsamples = 7\nvalue = [0, 0, 4, 0, 0, 0, 0, 1, 3, 1]"] ;
36 -> 56 ;
57 [label="pixel661 <= 8.0\ngini = 0.6\nsamples = 4\nvalue = [0, 0, 0, 0, 0, 0, 0, 1, 3, 1]"] ;
56 -> 57 ;
58 [label="gini = 0.0\nsamples = 2\nvalue = [0, 0, 0, 0, 0, 0, 0, 0, 3, 0]"] ;
57 -> 58 ;
59 [label="pixel236 <= 76.5\ngini = 0.5\nsamples = 2\nvalue = [0, 0, 0, 0, 0, 0, 0, 1, 0, 1]"] ;
57 -> 59 ;
60 [label="gini = 0.0\nsamples = 1\nvalue = [0, 0, 0, 0, 0, 0, 0, 1, 0, 0]"] ;
59 -> 60 ;
61 [label="gini = 0.0\nsamples = 1\nvalue = [0, 0, 0, 0, 0, 0, 0, 0, 0, 1]"] ;
59 -> 61 ;
62 [label="gini = 0.0\nsamples = 3\nvalue = [0, 0, 4, 0, 0, 0, 0, 0, 0, 0]"] ;
56 -> 62 ;
63 [label="pixel322 <= 153.5\ngini = 0.8\nsamples = 43\nvalue = [0, 0, 7, 21, 6, 6, 5, 12, 3, 8]"] ;
9 -> 63 ;
64 [label="pixel343 <= 106.5\ngini = 0.9\nsamples = 37\nvalue = [0, 0, 7, 12, 6, 6, 5, 12, 3, 8]"] ;
63 -> 64 ;
65 [label="pixel438 <= 37.0\ngini = 0.8\nsamples = 29\nvalue = [0, 0, 7, 12, 5, 6, 4, 11, 3, 1]"] ;
64 -> 65 ;
66 [label="pixel323 <= 103.5\ngini = 0.6\nsamples = 13\nvalue = [0, 0, 2, 12, 3, 0, 2, 0, 3, 0]"] ;
65 -> 66 ;
67 [label="pixel571 <= 7.0\ngini = 0.5\nsamples = 10\nvalue = [0, 0, 0, 11, 0, 0, 2, 0, 3, 0]"] ;
66 -> 67 ;
68 [label="gini = 0.0\nsamples = 6\nvalue = [0, 0, 0, 9, 0, 0, 0, 0, 0, 0]"] ;
67 -> 68 ;
69 [label="pixel493 <= 8.5\ngini = 0.7\nsamples = 4\nvalue = [0, 0, 0, 2, 0, 0, 2, 0, 3, 0]"] ;
67 -> 69 ;
70 [label="pixel122 <= 127.5\ngini = 0.5\nsamples = 2\nvalue = [0, 0, 0, 2, 0, 0, 2, 0, 0, 0]"] ;
69 -> 70 ;
71 [label="gini = 0.0\nsamples = 1\nvalue = [0, 0, 0, 0, 0, 0, 2, 0, 0, 0]"] ;
70 -> 71 ;
72 [label="gini = 0.0\nsamples = 1\nvalue = [0, 0, 0, 2, 0, 0, 0, 0, 0, 0]"] ;
70 -> 72 ;
73 [label="gini = 0.0\nsamples = 2\nvalue = [0, 0, 0, 0, 0, 0, 0, 0, 3, 0]"] ;
69 -> 73 ;
74 [label="pixel375 <= 127.5\ngini = 0.6\nsamples = 3\nvalue = [0, 0, 2, 1, 3, 0, 0, 0, 0, 0]"] ;
66 -> 74 ;
75 [label="pixel530 <= 89.5\ngini = 0.4\nsamples = 2\nvalue = [0, 0, 2, 1, 0, 0, 0, 0, 0, 0]"] ;
74 -> 75 ;
76 [label="gini = 0.0\nsamples = 1\nvalue = [0, 0, 0, 1, 0, 0, 0, 0, 0, 0]"] ;
75 -> 76 ;
77 [label="gini = 0.0\nsamples = 1\nvalue = [0, 0, 2, 0, 0, 0, 0, 0, 0, 0]"] ;
75 -> 77 ;
78 [label="gini = 0.0\nsamples = 1\nvalue = [0, 0, 0, 0, 3, 0, 0, 0, 0, 0]"] ;
74 -> 78 ;
79 [label="pixel296 <= 40.5\ngini = 0.7\nsamples = 16\nvalue = [0, 0, 5, 0, 2, 6, 2, 11, 0, 1]"] ;
65 -> 79 ;
80 [label="pixel714 <= 91.0\ngini = 0.8\nsamples = 8\nvalue = [0, 0, 3, 0, 2, 6, 2, 1, 0, 1]"] ;
79 -> 80 ;
81 [label="pixel571 <= 168.5\ngini = 0.8\nsamples = 7\nvalue = [0, 0, 3, 0, 2, 1, 2, 1, 0, 1]"] ;
80 -> 81 ;
82 [label="pixel122 <= 0.5\ngini = 0.8\nsamples = 6\nvalue = [0, 0, 0, 0, 2, 1, 2, 1, 0, 1]"] ;
81 -> 82 ;
83 [label="pixel183 <= 113.0\ngini = 0.7\nsamples = 4\nvalue = [0, 0, 0, 0, 2, 1, 0, 1, 0, 1]"] ;
82 -> 83 ;
84 [label="gini = 0.0\nsamples = 1\nvalue = [0, 0, 0, 0, 2, 0, 0, 0, 0, 0]"] ;
83 -> 84 ;
85 [label="pixel243 <= 16.0\ngini = 0.7\nsamples = 3\nvalue = [0, 0, 0, 0, 0, 1, 0, 1, 0, 1]"] ;
83 -> 85 ;
86 [label="gini = 0.0\nsamples = 1\nvalue = [0, 0, 0, 0, 0, 1, 0, 0, 0, 0]"] ;
85 -> 86 ;
87 [label="pixel151 <= 127.0\ngini = 0.5\nsamples = 2\nvalue = [0, 0, 0, 0, 0, 0, 0, 1, 0, 1]"] ;
85 -> 87 ;
88 [label="gini = 0.0\nsamples = 1\nvalue = [0, 0, 0, 0, 0, 0, 0, 0, 0, 1]"] ;
87 -> 88 ;
89 [label="gini = 0.0\nsamples = 1\nvalue = [0, 0, 0, 0, 0, 0, 0, 1, 0, 0]"] ;
87 -> 89 ;
90 [label="gini = 0.0\nsamples = 2\nvalue = [0, 0, 0, 0, 0, 0, 2, 0, 0, 0]"] ;
82 -> 90 ;
91 [label="gini = 0.0\nsamples = 1\nvalue = [0, 0, 3, 0, 0, 0, 0, 0, 0, 0]"] ;
81 -> 91 ;
92 [label="gini = 0.0\nsamples = 1\nvalue = [0, 0, 0, 0, 0, 5, 0, 0, 0, 0]"] ;
80 -> 92 ;
93 [label="pixel152 <= 56.5\ngini = 0.3\nsamples = 8\nvalue = [0, 0, 2, 0, 0, 0, 0, 10, 0, 0]"] ;
79 -> 93 ;
94 [label="gini = 0.0\nsamples = 6\nvalue = [0, 0, 0, 0, 0, 0, 0, 10, 0, 0]"] ;
93 -> 94 ;
95 [label="gini = 0.0\nsamples = 2\nvalue = [0, 0, 2, 0, 0, 0, 0, 0, 0, 0]"] ;
93 -> 95 ;
96 [label="pixel275 <= 22.5\ngini = 0.5\nsamples = 8\nvalue = [0, 0, 0, 0, 1, 0, 1, 1, 0, 7]"] ;
64 -> 96 ;
97 [label="pixel326 <= 195.5\ngini = 0.2\nsamples = 6\nvalue = [0, 0, 0, 0, 0, 0, 0, 1, 0, 7]"] ;
96 -> 97 ;
98 [label="gini = 0.0\nsamples = 5\nvalue = [0, 0, 0, 0, 0, 0, 0, 0, 0, 7]"] ;
97 -> 98 ;
99 [label="gini = 0.0\nsamples = 1\nvalue = [0, 0, 0, 0, 0, 0, 0, 1, 0, 0]"] ;
97 -> 99 ;
100 [label="pixel466 <= 193.0\ngini = 0.5\nsamples = 2\nvalue = [0, 0, 0, 0, 1, 0, 1, 0, 0, 0]"] ;
96 -> 100 ;
101 [label="gini = 0.0\nsamples = 1\nvalue = [0, 0, 0, 0, 0, 0, 1, 0, 0, 0]"] ;
100 -> 101 ;
102 [label="gini = 0.0\nsamples = 1\nvalue = [0, 0, 0, 0, 1, 0, 0, 0, 0, 0]"] ;
100 -> 102 ;
103 [label="gini = 0.0\nsamples = 6\nvalue = [0, 0, 0, 9, 0, 0, 0, 0, 0, 0]"] ;
63 -> 103 ;
104 [label="pixel297 <= 26.0\ngini = 0.6\nsamples = 23\nvalue = [0, 10, 21, 2, 0, 0, 5, 0, 2, 0]"] ;
8 -> 104 ;
105 [label="pixel492 <= 98.0\ngini = 0.6\nsamples = 10\nvalue = [0, 10, 4, 0, 0, 0, 5, 0, 0, 0]"] ;
104 -> 105 ;
106 [label="pixel263 <= 120.0\ngini = 0.6\nsamples = 6\nvalue = [0, 1, 4, 0, 0, 0, 5, 0, 0, 0]"] ;
105 -> 106 ;
107 [label="pixel465 <= 92.5\ngini = 0.3\nsamples = 3\nvalue = [0, 1, 4, 0, 0, 0, 0, 0, 0, 0]"] ;
106 -> 107 ;
108 [label="gini = 0.0\nsamples = 1\nvalue = [0, 1, 0, 0, 0, 0, 0, 0, 0, 0]"] ;
107 -> 108 ;
109 [label="gini = 0.0\nsamples = 2\nvalue = [0, 0, 4, 0, 0, 0, 0, 0, 0, 0]"] ;
107 -> 109 ;
110 [label="gini = 0.0\nsamples = 3\nvalue = [0, 0, 0, 0, 0, 0, 5, 0, 0, 0]"] ;
106 -> 110 ;
111 [label="gini = 0.0\nsamples = 4\nvalue = [0, 9, 0, 0, 0, 0, 0, 0, 0, 0]"] ;
105 -> 111 ;
112 [label="pixel353 <= 72.0\ngini = 0.3\nsamples = 13\nvalue = [0, 0, 17, 2, 0, 0, 0, 0, 2, 0]"] ;
104 -> 112 ;
113 [label="pixel238 <= 21.0\ngini = 0.4\nsamples = 2\nvalue = [0, 0, 0, 1, 0, 0, 0, 0, 2, 0]"] ;
112 -> 113 ;
114 [label="gini = 0.0\nsamples = 1\nvalue = [0, 0, 0, 0, 0, 0, 0, 0, 2, 0]"] ;
113 -> 114 ;
115 [label="gini = 0.0\nsamples = 1\nvalue = [0, 0, 0, 1, 0, 0, 0, 0, 0, 0]"] ;
113 -> 115 ;
116 [label="pixel432 <= 110.0\ngini = 0.1\nsamples = 11\nvalue = [0, 0, 17, 1, 0, 0, 0, 0, 0, 0]"] ;
112 -> 116 ;
117 [label="gini = 0.0\nsamples = 8\nvalue = [0, 0, 14, 0, 0, 0, 0, 0, 0, 0]"] ;
116 -> 117 ;
118 [label="pixel122 <= 207.0\ngini = 0.4\nsamples = 3\nvalue = [0, 0, 3, 1, 0, 0, 0, 0, 0, 0]"] ;
116 -> 118 ;
119 [label="gini = 0.0\nsamples = 1\nvalue = [0, 0, 0, 1, 0, 0, 0, 0, 0, 0]"] ;
118 -> 119 ;
120 [label="gini = 0.0\nsamples = 2\nvalue = [0, 0, 3, 0, 0, 0, 0, 0, 0, 0]"] ;
118 -> 120 ;
121 [label="pixel545 <= 85.5\ngini = 0.8\nsamples = 86\nvalue = [29, 1, 45, 32, 5, 2, 11, 3, 1, 7]"] ;
7 -> 121 ;
122 [label="pixel315 <= 25.0\ngini = 0.7\nsamples = 56\nvalue = [29, 1, 3, 32, 5, 2, 8, 3, 0, 6]"] ;
121 -> 122 ;
123 [label="pixel213 <= 11.0\ngini = 0.4\nsamples = 26\nvalue = [2, 1, 3, 32, 0, 2, 3, 0, 0, 0]"] ;
122 -> 123 ;
124 [label="pixel268 <= 30.0\ngini = 0.7\nsamples = 8\nvalue = [0, 1, 0, 3, 0, 2, 3, 0, 0, 0]"] ;
123 -> 124 ;
125 [label="pixel492 <= 1.5\ngini = 0.5\nsamples = 4\nvalue = [0, 0, 0, 0, 0, 2, 3, 0, 0, 0]"] ;
124 -> 125 ;
126 [label="gini = 0.0\nsamples = 2\nvalue = [0, 0, 0, 0, 0, 2, 0, 0, 0, 0]"] ;
125 -> 126 ;
127 [label="gini = 0.0\nsamples = 2\nvalue = [0, 0, 0, 0, 0, 0, 3, 0, 0, 0]"] ;
125 -> 127 ;
128 [label="pixel524 <= 151.5\ngini = 0.4\nsamples = 4\nvalue = [0, 1, 0, 3, 0, 0, 0, 0, 0, 0]"] ;
124 -> 128 ;
129 [label="gini = 0.0\nsamples = 3\nvalue = [0, 0, 0, 3, 0, 0, 0, 0, 0, 0]"] ;
128 -> 129 ;
130 [label="gini = 0.0\nsamples = 1\nvalue = [0, 1, 0, 0, 0, 0, 0, 0, 0, 0]"] ;
128 -> 130 ;
131 [label="pixel384 <= 249.0\ngini = 0.3\nsamples = 18\nvalue = [2, 0, 3, 29, 0, 0, 0, 0, 0, 0]"] ;
123 -> 131 ;
132 [label="pixel357 <= 109.5\ngini = 0.1\nsamples = 15\nvalue = [1, 0, 0, 29, 0, 0, 0, 0, 0, 0]"] ;
131 -> 132 ;
133 [label="gini = 0.0\nsamples = 14\nvalue = [0, 0, 0, 29, 0, 0, 0, 0, 0, 0]"] ;
132 -> 133 ;
134 [label="gini = 0.0\nsamples = 1\nvalue = [1, 0, 0, 0, 0, 0, 0, 0, 0, 0]"] ;
132 -> 134 ;
135 [label="pixel233 <= 190.0\ngini = 0.4\nsamples = 3\nvalue = [1, 0, 3, 0, 0, 0, 0, 0, 0, 0]"] ;
131 -> 135 ;
136 [label="gini = 0.0\nsamples = 1\nvalue = [1, 0, 0, 0, 0, 0, 0, 0, 0, 0]"] ;
135 -> 136 ;
137 [label="gini = 0.0\nsamples = 2\nvalue = [0, 0, 3, 0, 0, 0, 0, 0, 0, 0]"] ;
135 -> 137 ;
138 [label="pixel431 <= 32.0\ngini = 0.6\nsamples = 30\nvalue = [27, 0, 0, 0, 5, 0, 5, 3, 0, 6]"] ;
122 -> 138 ;
139 [label="pixel463 <= 11.0\ngini = 0.5\nsamples = 25\nvalue = [27, 0, 0, 0, 4, 0, 5, 3, 0, 0]"] ;
138 -> 139 ;
140 [label="pixel466 <= 10.0\ngini = 0.2\nsamples = 19\nvalue = [27, 0, 0, 0, 0, 0, 0, 3, 0, 0]"] ;
139 -> 140 ;
141 [label="gini = 0.0\nsamples = 17\nvalue = [27, 0, 0, 0, 0, 0, 0, 0, 0, 0]"] ;
140 -> 141 ;
142 [label="gini = 0.0\nsamples = 2\nvalue = [0, 0, 0, 0, 0, 0, 0, 3, 0, 0]"] ;
140 -> 142 ;
143 [label="pixel444 <= 21.5\ngini = 0.5\nsamples = 6\nvalue = [0, 0, 0, 0, 4, 0, 5, 0, 0, 0]"] ;
139 -> 143 ;
144 [label="gini = 0.0\nsamples = 2\nvalue = [0, 0, 0, 0, 4, 0, 0, 0, 0, 0]"] ;
143 -> 144 ;
145 [label="gini = 0.0\nsamples = 4\nvalue = [0, 0, 0, 0, 0, 0, 5, 0, 0, 0]"] ;
143 -> 145 ;
146 [label="pixel314 <= 242.5\ngini = 0.2\nsamples = 5\nvalue = [0, 0, 0, 0, 1, 0, 0, 0, 0, 6]"] ;
138 -> 146 ;
147 [label="gini = 0.0\nsamples = 4\nvalue = [0, 0, 0, 0, 0, 0, 0, 0, 0, 6]"] ;
146 -> 147 ;
148 [label="gini = 0.0\nsamples = 1\nvalue = [0, 0, 0, 0, 1, 0, 0, 0, 0, 0]"] ;
146 -> 148 ;
149 [label="pixel359 <= 118.0\ngini = 0.2\nsamples = 30\nvalue = [0, 0, 42, 0, 0, 0, 3, 0, 1, 1]"] ;
121 -> 149 ;
150 [label="pixel425 <= 127.0\ngini = 0.1\nsamples = 28\nvalue = [0, 0, 42, 0, 0, 0, 0, 0, 1, 1]"] ;
149 -> 150 ;
151 [label="pixel186 <= 82.5\ngini = 0.0\nsamples = 27\nvalue = [0, 0, 42, 0, 0, 0, 0, 0, 1, 0]"] ;
150 -> 151 ;
152 [label="gini = 0.0\nsamples = 26\nvalue = [0, 0, 42, 0, 0, 0, 0, 0, 0, 0]"] ;
151 -> 152 ;
153 [label="gini = 0.0\nsamples = 1\nvalue = [0, 0, 0, 0, 0, 0, 0, 0, 1, 0]"] ;
151 -> 153 ;
154 [label="gini = 0.0\nsamples = 1\nvalue = [0, 0, 0, 0, 0, 0, 0, 0, 0, 1]"] ;
150 -> 154 ;
155 [label="gini = 0.0\nsamples = 2\nvalue = [0, 0, 0, 0, 0, 0, 3, 0, 0, 0]"] ;
149 -> 155 ;
156 [label="pixel239 <= 8.5\ngini = 0.7\nsamples = 123\nvalue = [1, 0, 26, 8, 90, 5, 0, 8, 4, 47]"] ;
6 -> 156 ;
157 [label="pixel598 <= 17.5\ngini = 0.4\nsamples = 76\nvalue = [1, 0, 7, 4, 85, 2, 0, 2, 2, 13]"] ;
156 -> 157 ;
158 [label="pixel664 <= 225.0\ngini = 0.3\nsamples = 68\nvalue = [0, 0, 0, 4, 85, 0, 0, 2, 2, 13]"] ;
157 -> 158 ;
159 [label="pixel371 <= 64.0\ngini = 0.2\nsamples = 56\nvalue = [0, 0, 0, 2, 79, 0, 0, 2, 0, 7]"] ;
158 -> 159 ;
160 [label="pixel237 <= 5.0\ngini = 0.7\nsamples = 12\nvalue = [0, 0, 0, 2, 8, 0, 0, 2, 0, 4]"] ;
159 -> 160 ;
161 [label="pixel687 <= 148.0\ngini = 0.4\nsamples = 9\nvalue = [0, 0, 0, 2, 8, 0, 0, 1, 0, 0]"] ;
160 -> 161 ;
162 [label="pixel403 <= 192.0\ngini = 0.2\nsamples = 7\nvalue = [0, 0, 0, 0, 8, 0, 0, 1, 0, 0]"] ;
161 -> 162 ;
163 [label="gini = 0.0\nsamples = 6\nvalue = [0, 0, 0, 0, 8, 0, 0, 0, 0, 0]"] ;
162 -> 163 ;
164 [label="gini = 0.0\nsamples = 1\nvalue = [0, 0, 0, 0, 0, 0, 0, 1, 0, 0]"] ;
162 -> 164 ;
165 [label="gini = 0.0\nsamples = 2\nvalue = [0, 0, 0, 2, 0, 0, 0, 0, 0, 0]"] ;
161 -> 165 ;
166 [label="pixel237 <= 52.0\ngini = 0.3\nsamples = 3\nvalue = [0, 0, 0, 0, 0, 0, 0, 1, 0, 4]"] ;
160 -> 166 ;
167 [label="gini = 0.0\nsamples = 2\nvalue = [0, 0, 0, 0, 0, 0, 0, 0, 0, 4]"] ;
166 -> 167 ;
168 [label="gini = 0.0\nsamples = 1\nvalue = [0, 0, 0, 0, 0, 0, 0, 1, 0, 0]"] ;
166 -> 168 ;
169 [label="pixel578 <= 15.5\ngini = 0.1\nsamples = 44\nvalue = [0, 0, 0, 0, 71, 0, 0, 0, 0, 3]"] ;
159 -> 169 ;
170 [label="pixel261 <= 71.0\ngini = 0.2\nsamples = 15\nvalue = [0, 0, 0, 0, 21, 0, 0, 0, 0, 3]"] ;
169 -> 170 ;
171 [label="gini = 0.0\nsamples = 11\nvalue = [0, 0, 0, 0, 18, 0, 0, 0, 0, 0]"] ;
170 -> 171 ;
172 [label="pixel715 <= 23.0\ngini = 0.5\nsamples = 4\nvalue = [0, 0, 0, 0, 3, 0, 0, 0, 0, 3]"] ;
170 -> 172 ;
173 [label="pixel343 <= 249.0\ngini = 0.4\nsamples = 3\nvalue = [0, 0, 0, 0, 3, 0, 0, 0, 0, 1]"] ;
172 -> 173 ;
174 [label="gini = 0.0\nsamples = 2\nvalue = [0, 0, 0, 0, 3, 0, 0, 0, 0, 0]"] ;
173 -> 174 ;
175 [label="gini = 0.0\nsamples = 1\nvalue = [0, 0, 0, 0, 0, 0, 0, 0, 0, 1]"] ;
173 -> 175 ;
176 [label="gini = 0.0\nsamples = 1\nvalue = [0, 0, 0, 0, 0, 0, 0, 0, 0, 2]"] ;
172 -> 176 ;
177 [label="gini = 0.0\nsamples = 29\nvalue = [0, 0, 0, 0, 50, 0, 0, 0, 0, 0]"] ;
169 -> 177 ;
178 [label="pixel208 <= 2.0\ngini = 0.7\nsamples = 12\nvalue = [0, 0, 0, 2, 6, 0, 0, 0, 2, 6]"] ;
158 -> 178 ;
179 [label="gini = 0.0\nsamples = 5\nvalue = [0, 0, 0, 0, 6, 0, 0, 0, 0, 0]"] ;
178 -> 179 ;
180 [label="pixel178 <= 231.5\ngini = 0.6\nsamples = 7\nvalue = [0, 0, 0, 2, 0, 0, 0, 0, 2, 6]"] ;
178 -> 180 ;
181 [label="pixel575 <= 84.0\ngini = 0.4\nsamples = 6\nvalue = [0, 0, 0, 0, 0, 0, 0, 0, 2, 6]"] ;
180 -> 181 ;
182 [label="gini = 0.0\nsamples = 4\nvalue = [0, 0, 0, 0, 0, 0, 0, 0, 0, 6]"] ;
181 -> 182 ;
183 [label="gini = 0.0\nsamples = 2\nvalue = [0, 0, 0, 0, 0, 0, 0, 0, 2, 0]"] ;
181 -> 183 ;
184 [label="gini = 0.0\nsamples = 1\nvalue = [0, 0, 0, 2, 0, 0, 0, 0, 0, 0]"] ;
180 -> 184 ;
185 [label="pixel428 <= 121.0\ngini = 0.5\nsamples = 8\nvalue = [1, 0, 7, 0, 0, 2, 0, 0, 0, 0]"] ;
157 -> 185 ;
186 [label="pixel181 <= 113.0\ngini = 0.4\nsamples = 2\nvalue = [1, 0, 0, 0, 0, 2, 0, 0, 0, 0]"] ;
185 -> 186 ;
187 [label="gini = 0.0\nsamples = 1\nvalue = [0, 0, 0, 0, 0, 2, 0, 0, 0, 0]"] ;
186 -> 187 ;
188 [label="gini = 0.0\nsamples = 1\nvalue = [1, 0, 0, 0, 0, 0, 0, 0, 0, 0]"] ;
186 -> 188 ;
189 [label="gini = 0.0\nsamples = 6\nvalue = [0, 0, 7, 0, 0, 0, 0, 0, 0, 0]"] ;
185 -> 189 ;
190 [label="pixel371 <= 11.0\ngini = 0.7\nsamples = 47\nvalue = [0, 0, 19, 4, 5, 3, 0, 6, 2, 34]"] ;
156 -> 190 ;
191 [label="pixel235 <= 8.5\ngini = 0.6\nsamples = 22\nvalue = [0, 0, 19, 4, 1, 1, 0, 5, 0, 0]"] ;
190 -> 191 ;
192 [label="pixel268 <= 254.5\ngini = 0.4\nsamples = 16\nvalue = [0, 0, 19, 3, 0, 0, 0, 2, 0, 0]"] ;
191 -> 192 ;
193 [label="pixel123 <= 20.0\ngini = 0.1\nsamples = 13\nvalue = [0, 0, 19, 1, 0, 0, 0, 0, 0, 0]"] ;
192 -> 193 ;
194 [label="pixel597 <= 65.5\ngini = 0.3\nsamples = 4\nvalue = [0, 0, 4, 1, 0, 0, 0, 0, 0, 0]"] ;
193 -> 194 ;
195 [label="gini = 0.0\nsamples = 1\nvalue = [0, 0, 0, 1, 0, 0, 0, 0, 0, 0]"] ;
194 -> 195 ;
196 [label="gini = 0.0\nsamples = 3\nvalue = [0, 0, 4, 0, 0, 0, 0, 0, 0, 0]"] ;
194 -> 196 ;
197 [label="gini = 0.0\nsamples = 9\nvalue = [0, 0, 15, 0, 0, 0, 0, 0, 0, 0]"] ;
193 -> 197 ;
198 [label="pixel352 <= 239.5\ngini = 0.5\nsamples = 3\nvalue = [0, 0, 0, 2, 0, 0, 0, 2, 0, 0]"] ;
192 -> 198 ;
199 [label="gini = 0.0\nsamples = 2\nvalue = [0, 0, 0, 2, 0, 0, 0, 0, 0, 0]"] ;
198 -> 199 ;
200 [label="gini = 0.0\nsamples = 1\nvalue = [0, 0, 0, 0, 0, 0, 0, 2, 0, 0]"] ;
198 -> 200 ;
201 [label="pixel353 <= 61.5\ngini = 0.7\nsamples = 6\nvalue = [0, 0, 0, 1, 1, 1, 0, 3, 0, 0]"] ;
191 -> 201 ;
202 [label="pixel177 <= 39.5\ngini = 0.7\nsamples = 3\nvalue = [0, 0, 0, 1, 1, 1, 0, 0, 0, 0]"] ;
201 -> 202 ;
203 [label="pixel662 <= 65.0\ngini = 0.5\nsamples = 2\nvalue = [0, 0, 0, 0, 1, 1, 0, 0, 0, 0]"] ;
202 -> 203 ;
204 [label="gini = 0.0\nsamples = 1\nvalue = [0, 0, 0, 0, 1, 0, 0, 0, 0, 0]"] ;
203 -> 204 ;
205 [label="gini = 0.0\nsamples = 1\nvalue = [0, 0, 0, 0, 0, 1, 0, 0, 0, 0]"] ;
203 -> 205 ;
206 [label="gini = 0.0\nsamples = 1\nvalue = [0, 0, 0, 1, 0, 0, 0, 0, 0, 0]"] ;
202 -> 206 ;
207 [label="gini = 0.0\nsamples = 3\nvalue = [0, 0, 0, 0, 0, 0, 0, 3, 0, 0]"] ;
201 -> 207 ;
208 [label="pixel370 <= 253.5\ngini = 0.4\nsamples = 25\nvalue = [0, 0, 0, 0, 4, 2, 0, 1, 2, 34]"] ;
190 -> 208 ;
209 [label="pixel552 <= 195.0\ngini = 0.3\nsamples = 22\nvalue = [0, 0, 0, 0, 3, 2, 0, 0, 1, 34]"] ;
208 -> 209 ;
210 [label="pixel430 <= 254.5\ngini = 0.2\nsamples = 18\nvalue = [0, 0, 0, 0, 3, 0, 0, 0, 0, 33]"] ;
209 -> 210 ;
211 [label="pixel219 <= 108.0\ngini = 0.1\nsamples = 16\nvalue = [0, 0, 0, 0, 1, 0, 0, 0, 0, 33]"] ;
210 -> 211 ;
212 [label="gini = 0.0\nsamples = 15\nvalue = [0, 0, 0, 0, 0, 0, 0, 0, 0, 33]"] ;
211 -> 212 ;
213 [label="gini = 0.0\nsamples = 1\nvalue = [0, 0, 0, 0, 1, 0, 0, 0, 0, 0]"] ;
211 -> 213 ;
214 [label="gini = 0.0\nsamples = 2\nvalue = [0, 0, 0, 0, 2, 0, 0, 0, 0, 0]"] ;
210 -> 214 ;
215 [label="pixel713 <= 44.0\ngini = 0.6\nsamples = 4\nvalue = [0, 0, 0, 0, 0, 2, 0, 0, 1, 1]"] ;
209 -> 215 ;
216 [label="pixel294 <= 18.5\ngini = 0.5\nsamples = 2\nvalue = [0, 0, 0, 0, 0, 0, 0, 0, 1, 1]"] ;
215 -> 216 ;
217 [label="gini = 0.0\nsamples = 1\nvalue = [0, 0, 0, 0, 0, 0, 0, 0, 0, 1]"] ;
216 -> 217 ;
218 [label="gini = 0.0\nsamples = 1\nvalue = [0, 0, 0, 0, 0, 0, 0, 0, 1, 0]"] ;
216 -> 218 ;
219 [label="gini = 0.0\nsamples = 2\nvalue = [0, 0, 0, 0, 0, 2, 0, 0, 0, 0]"] ;
215 -> 219 ;
220 [label="pixel297 <= 110.5\ngini = 0.7\nsamples = 3\nvalue = [0, 0, 0, 0, 1, 0, 0, 1, 1, 0]"] ;
208 -> 220 ;
221 [label="gini = 0.0\nsamples = 1\nvalue = [0, 0, 0, 0, 0, 0, 0, 1, 0, 0]"] ;
220 -> 221 ;
222 [label="pixel691 <= 28.5\ngini = 0.5\nsamples = 2\nvalue = [0, 0, 0, 0, 1, 0, 0, 0, 1, 0]"] ;
220 -> 222 ;
223 [label="gini = 0.0\nsamples = 1\nvalue = [0, 0, 0, 0, 0, 0, 0, 0, 1, 0]"] ;
222 -> 223 ;
224 [label="gini = 0.0\nsamples = 1\nvalue = [0, 0, 0, 0, 1, 0, 0, 0, 0, 0]"] ;
222 -> 224 ;
225 [label="pixel609 <= 5.5\ngini = 0.3\nsamples = 941\nvalue = [30, 5, 63, 51, 0, 7, 0, 1292, 6, 90]"] ;
5 -> 225 ;
226 [label="pixel401 <= 0.5\ngini = 0.2\nsamples = 903\nvalue = [8, 5, 51, 43, 0, 5, 0, 1290, 6, 71]"] ;
225 -> 226 ;
227 [label="pixel538 <= 11.0\ngini = 0.2\nsamples = 836\nvalue = [8, 5, 44, 33, 0, 3, 0, 1268, 1, 15]"] ;
226 -> 227 ;
228 [label="pixel568 <= 18.0\ngini = 0.1\nsamples = 825\nvalue = [0, 5, 40, 26, 0, 3, 0, 1268, 1, 15]"] ;
227 -> 228 ;
229 [label="pixel404 <= 2.0\ngini = 0.1\nsamples = 815\nvalue = [0, 5, 29, 24, 0, 3, 0, 1265, 1, 15]"] ;
228 -> 229 ;
230 [label="pixel234 <= 3.5\ngini = 0.1\nsamples = 784\nvalue = [0, 5, 28, 11, 0, 0, 0, 1229, 1, 13]"] ;
229 -> 230 ;
231 [label="pixel634 <= 37.0\ngini = 0.6\nsamples = 33\nvalue = [0, 5, 9, 2, 0, 0, 0, 32, 1, 7]"] ;
230 -> 231 ;
232 [label="pixel297 <= 13.0\ngini = 0.6\nsamples = 30\nvalue = [0, 5, 3, 2, 0, 0, 0, 32, 1, 7]"] ;
231 -> 232 ;
233 [label="pixel436 <= 98.5\ngini = 0.7\nsamples = 7\nvalue = [0, 5, 2, 2, 0, 0, 0, 4, 0, 0]"] ;
232 -> 233 ;
234 [label="pixel434 <= 196.0\ngini = 0.4\nsamples = 4\nvalue = [0, 5, 0, 0, 0, 0, 0, 2, 0, 0]"] ;
233 -> 234 ;
235 [label="gini = 0.0\nsamples = 3\nvalue = [0, 5, 0, 0, 0, 0, 0, 0, 0, 0]"] ;
234 -> 235 ;
236 [label="gini = 0.0\nsamples = 1\nvalue = [0, 0, 0, 0, 0, 0, 0, 2, 0, 0]"] ;
234 -> 236 ;
237 [label="pixel627 <= 113.0\ngini = 0.7\nsamples = 3\nvalue = [0, 0, 2, 2, 0, 0, 0, 2, 0, 0]"] ;
233 -> 237 ;
238 [label="gini = 0.0\nsamples = 1\nvalue = [0, 0, 0, 2, 0, 0, 0, 0, 0, 0]"] ;
237 -> 238 ;
239 [label="pixel548 <= 10.5\ngini = 0.5\nsamples = 2\nvalue = [0, 0, 2, 0, 0, 0, 0, 2, 0, 0]"] ;
237 -> 239 ;
240 [label="gini = 0.0\nsamples = 1\nvalue = [0, 0, 0, 0, 0, 0, 0, 2, 0, 0]"] ;
239 -> 240 ;
241 [label="gini = 0.0\nsamples = 1\nvalue = [0, 0, 2, 0, 0, 0, 0, 0, 0, 0]"] ;
239 -> 241 ;
242 [label="pixel271 <= 1.0\ngini = 0.4\nsamples = 23\nvalue = [0, 0, 1, 0, 0, 0, 0, 28, 1, 7]"] ;
232 -> 242 ;
243 [label="pixel207 <= 5.0\ngini = 0.4\nsamples = 4\nvalue = [0, 0, 0, 0, 0, 0, 0, 2, 0, 4]"] ;
242 -> 243 ;
244 [label="gini = 0.0\nsamples = 2\nvalue = [0, 0, 0, 0, 0, 0, 0, 0, 0, 4]"] ;
243 -> 244 ;
245 [label="gini = 0.0\nsamples = 2\nvalue = [0, 0, 0, 0, 0, 0, 0, 2, 0, 0]"] ;
243 -> 245 ;
246 [label="pixel269 <= 25.0\ngini = 0.3\nsamples = 19\nvalue = [0, 0, 1, 0, 0, 0, 0, 26, 1, 3]"] ;
242 -> 246 ;
247 [label="pixel381 <= 101.5\ngini = 0.5\nsamples = 2\nvalue = [0, 0, 0, 0, 0, 0, 0, 0, 1, 1]"] ;
246 -> 247 ;
248 [label="gini = 0.0\nsamples = 1\nvalue = [0, 0, 0, 0, 0, 0, 0, 0, 1, 0]"] ;
247 -> 248 ;
249 [label="gini = 0.0\nsamples = 1\nvalue = [0, 0, 0, 0, 0, 0, 0, 0, 0, 1]"] ;
247 -> 249 ;
250 [label="pixel495 <= 37.0\ngini = 0.2\nsamples = 17\nvalue = [0, 0, 1, 0, 0, 0, 0, 26, 0, 2]"] ;
246 -> 250 ;
251 [label="pixel629 <= 9.0\ngini = 0.1\nsamples = 15\nvalue = [0, 0, 0, 0, 0, 0, 0, 25, 0, 2]"] ;
250 -> 251 ;
252 [label="gini = 0.0\nsamples = 11\nvalue = [0, 0, 0, 0, 0, 0, 0, 18, 0, 0]"] ;
251 -> 252 ;
253 [label="pixel181 <= 5.5\ngini = 0.3\nsamples = 4\nvalue = [0, 0, 0, 0, 0, 0, 0, 7, 0, 2]"] ;
251 -> 253 ;
254 [label="gini = 0.0\nsamples = 1\nvalue = [0, 0, 0, 0, 0, 0, 0, 0, 0, 2]"] ;
253 -> 254 ;
255 [label="gini = 0.0\nsamples = 3\nvalue = [0, 0, 0, 0, 0, 0, 0, 7, 0, 0]"] ;
253 -> 255 ;
256 [label="pixel412 <= 117.5\ngini = 0.5\nsamples = 2\nvalue = [0, 0, 1, 0, 0, 0, 0, 1, 0, 0]"] ;
250 -> 256 ;
257 [label="gini = 0.0\nsamples = 1\nvalue = [0, 0, 0, 0, 0, 0, 0, 1, 0, 0]"] ;
256 -> 257 ;
258 [label="gini = 0.0\nsamples = 1\nvalue = [0, 0, 1, 0, 0, 0, 0, 0, 0, 0]"] ;
256 -> 258 ;
259 [label="gini = 0.0\nsamples = 3\nvalue = [0, 0, 6, 0, 0, 0, 0, 0, 0, 0]"] ;
231 -> 259 ;
260 [label="pixel580 <= 7.5\ngini = 0.1\nsamples = 751\nvalue = [0, 0, 19, 9, 0, 0, 0, 1197, 0, 6]"] ;
230 -> 260 ;
261 [label="pixel153 <= 38.0\ngini = 0.0\nsamples = 739\nvalue = [0, 0, 14, 6, 0, 0, 0, 1188, 0, 4]"] ;
260 -> 261 ;
262 [label="pixel488 <= 106.5\ngini = 0.0\nsamples = 736\nvalue = [0, 0, 11, 6, 0, 0, 0, 1188, 0, 4]"] ;
261 -> 262 ;
263 [label="pixel524 <= 173.5\ngini = 0.0\nsamples = 702\nvalue = [0, 0, 4, 3, 0, 0, 0, 1146, 0, 2]"] ;
262 -> 263 ;
264 [label="pixel455 <= 168.5\ngini = 0.0\nsamples = 696\nvalue = [0, 0, 0, 2, 0, 0, 0, 1143, 0, 2]"] ;
263 -> 264 ;
265 [label="pixel430 <= 221.5\ngini = 0.0\nsamples = 693\nvalue = [0, 0, 0, 2, 0, 0, 0, 1138, 0, 0]"] ;
264 -> 265 ;
266 [label="pixel181 <= 168.5\ngini = 0.0\nsamples = 692\nvalue = [0, 0, 0, 1, 0, 0, 0, 1138, 0, 0]"] ;
265 -> 266 ;
267 [label="gini = 0.0\nsamples = 652\nvalue = [0, 0, 0, 0, 0, 0, 0, 1074, 0, 0]"] ;
266 -> 267 ;
268 [label="pixel577 <= 236.5\ngini = 0.0\nsamples = 40\nvalue = [0, 0, 0, 1, 0, 0, 0, 64, 0, 0]"] ;
266 -> 268 ;
269 [label="gini = 0.0\nsamples = 38\nvalue = [0, 0, 0, 0, 0, 0, 0, 63, 0, 0]"] ;
268 -> 269 ;
270 [label="pixel464 <= 106.5\ngini = 0.5\nsamples = 2\nvalue = [0, 0, 0, 1, 0, 0, 0, 1, 0, 0]"] ;
268 -> 270 ;
271 [label="gini = 0.0\nsamples = 1\nvalue = [0, 0, 0, 0, 0, 0, 0, 1, 0, 0]"] ;
270 -> 271 ;
272 [label="gini = 0.0\nsamples = 1\nvalue = [0, 0, 0, 1, 0, 0, 0, 0, 0, 0]"] ;
270 -> 272 ;
273 [label="gini = 0.0\nsamples = 1\nvalue = [0, 0, 0, 1, 0, 0, 0, 0, 0, 0]"] ;
265 -> 273 ;
274 [label="pixel439 <= 84.5\ngini = 0.4\nsamples = 3\nvalue = [0, 0, 0, 0, 0, 0, 0, 5, 0, 2]"] ;
264 -> 274 ;
275 [label="gini = 0.0\nsamples = 1\nvalue = [0, 0, 0, 0, 0, 0, 0, 0, 0, 2]"] ;
274 -> 275 ;
276 [label="gini = 0.0\nsamples = 2\nvalue = [0, 0, 0, 0, 0, 0, 0, 5, 0, 0]"] ;
274 -> 276 ;
277 [label="pixel600 <= 39.5\ngini = 0.6\nsamples = 6\nvalue = [0, 0, 4, 1, 0, 0, 0, 3, 0, 0]"] ;
263 -> 277 ;
278 [label="gini = 0.0\nsamples = 3\nvalue = [0, 0, 0, 0, 0, 0, 0, 3, 0, 0]"] ;
277 -> 278 ;
279 [label="pixel272 <= 216.0\ngini = 0.3\nsamples = 3\nvalue = [0, 0, 4, 1, 0, 0, 0, 0, 0, 0]"] ;
277 -> 279 ;
280 [label="gini = 0.0\nsamples = 2\nvalue = [0, 0, 4, 0, 0, 0, 0, 0, 0, 0]"] ;
279 -> 280 ;
281 [label="gini = 0.0\nsamples = 1\nvalue = [0, 0, 0, 1, 0, 0, 0, 0, 0, 0]"] ;
279 -> 281 ;
282 [label="pixel286 <= 221.0\ngini = 0.4\nsamples = 34\nvalue = [0, 0, 7, 3, 0, 0, 0, 42, 0, 2]"] ;
262 -> 282 ;
283 [label="pixel717 <= 102.5\ngini = 0.3\nsamples = 31\nvalue = [0, 0, 4, 2, 0, 0, 0, 42, 0, 2]"] ;
282 -> 283 ;
284 [label="pixel744 <= 82.0\ngini = 0.2\nsamples = 29\nvalue = [0, 0, 1, 2, 0, 0, 0, 42, 0, 2]"] ;
283 -> 284 ;
285 [label="pixel343 <= 155.5\ngini = 0.2\nsamples = 28\nvalue = [0, 0, 1, 2, 0, 0, 0, 42, 0, 1]"] ;
284 -> 285 ;
286 [label="pixel685 <= 238.5\ngini = 0.1\nsamples = 27\nvalue = [0, 0, 1, 2, 0, 0, 0, 42, 0, 0]"] ;
285 -> 286 ;
287 [label="gini = 0.0\nsamples = 22\nvalue = [0, 0, 0, 0, 0, 0, 0, 39, 0, 0]"] ;
286 -> 287 ;
288 [label="pixel602 <= 253.5\ngini = 0.6\nsamples = 5\nvalue = [0, 0, 1, 2, 0, 0, 0, 3, 0, 0]"] ;
286 -> 288 ;
289 [label="pixel599 <= 126.0\ngini = 0.4\nsamples = 3\nvalue = [0, 0, 1, 2, 0, 0, 0, 0, 0, 0]"] ;
288 -> 289 ;
290 [label="gini = 0.0\nsamples = 2\nvalue = [0, 0, 0, 2, 0, 0, 0, 0, 0, 0]"] ;
289 -> 290 ;
291 [label="gini = 0.0\nsamples = 1\nvalue = [0, 0, 1, 0, 0, 0, 0, 0, 0, 0]"] ;
289 -> 291 ;
292 [label="gini = 0.0\nsamples = 2\nvalue = [0, 0, 0, 0, 0, 0, 0, 3, 0, 0]"] ;
288 -> 292 ;
293 [label="gini = 0.0\nsamples = 1\nvalue = [0, 0, 0, 0, 0, 0, 0, 0, 0, 1]"] ;
285 -> 293 ;
294 [label="gini = 0.0\nsamples = 1\nvalue = [0, 0, 0, 0, 0, 0, 0, 0, 0, 1]"] ;
284 -> 294 ;
295 [label="gini = 0.0\nsamples = 2\nvalue = [0, 0, 3, 0, 0, 0, 0, 0, 0, 0]"] ;
283 -> 295 ;
296 [label="pixel687 <= 127.0\ngini = 0.4\nsamples = 3\nvalue = [0, 0, 3, 1, 0, 0, 0, 0, 0, 0]"] ;
282 -> 296 ;
297 [label="gini = 0.0\nsamples = 2\nvalue = [0, 0, 3, 0, 0, 0, 0, 0, 0, 0]"] ;
296 -> 297 ;
298 [label="gini = 0.0\nsamples = 1\nvalue = [0, 0, 0, 1, 0, 0, 0, 0, 0, 0]"] ;
296 -> 298 ;
299 [label="gini = 0.0\nsamples = 3\nvalue = [0, 0, 3, 0, 0, 0, 0, 0, 0, 0]"] ;
261 -> 299 ;
300 [label="pixel285 <= 2.5\ngini = 0.7\nsamples = 12\nvalue = [0, 0, 5, 3, 0, 0, 0, 9, 0, 2]"] ;
260 -> 300 ;
301 [label="gini = 0.0\nsamples = 3\nvalue = [0, 0, 4, 0, 0, 0, 0, 0, 0, 0]"] ;
300 -> 301 ;
302 [label="pixel523 <= 240.0\ngini = 0.6\nsamples = 9\nvalue = [0, 0, 1, 3, 0, 0, 0, 9, 0, 2]"] ;
300 -> 302 ;
303 [label="pixel606 <= 219.0\ngini = 0.5\nsamples = 2\nvalue = [0, 0, 0, 3, 0, 0, 0, 0, 0, 2]"] ;
302 -> 303 ;
304 [label="gini = 0.0\nsamples = 1\nvalue = [0, 0, 0, 3, 0, 0, 0, 0, 0, 0]"] ;
303 -> 304 ;
305 [label="gini = 0.0\nsamples = 1\nvalue = [0, 0, 0, 0, 0, 0, 0, 0, 0, 2]"] ;
303 -> 305 ;
306 [label="pixel554 <= 176.0\ngini = 0.2\nsamples = 7\nvalue = [0, 0, 1, 0, 0, 0, 0, 9, 0, 0]"] ;
302 -> 306 ;
307 [label="gini = 0.0\nsamples = 6\nvalue = [0, 0, 0, 0, 0, 0, 0, 9, 0, 0]"] ;
306 -> 307 ;
308 [label="gini = 0.0\nsamples = 1\nvalue = [0, 0, 1, 0, 0, 0, 0, 0, 0, 0]"] ;
306 -> 308 ;
309 [label="pixel260 <= 247.0\ngini = 0.5\nsamples = 31\nvalue = [0, 0, 1, 13, 0, 3, 0, 36, 0, 2]"] ;
229 -> 309 ;
310 [label="pixel226 <= 75.5\ngini = 0.1\nsamples = 22\nvalue = [0, 0, 0, 3, 0, 0, 0, 36, 0, 0]"] ;
309 -> 310 ;
311 [label="pixel353 <= 4.5\ngini = 0.1\nsamples = 21\nvalue = [0, 0, 0, 2, 0, 0, 0, 36, 0, 0]"] ;
310 -> 311 ;
312 [label="gini = 0.0\nsamples = 1\nvalue = [0, 0, 0, 2, 0, 0, 0, 0, 0, 0]"] ;
311 -> 312 ;
313 [label="gini = 0.0\nsamples = 20\nvalue = [0, 0, 0, 0, 0, 0, 0, 36, 0, 0]"] ;
311 -> 313 ;
314 [label="gini = 0.0\nsamples = 1\nvalue = [0, 0, 0, 1, 0, 0, 0, 0, 0, 0]"] ;
310 -> 314 ;
315 [label="pixel268 <= 180.5\ngini = 0.6\nsamples = 9\nvalue = [0, 0, 1, 10, 0, 3, 0, 0, 0, 2]"] ;
309 -> 315 ;
316 [label="pixel266 <= 252.5\ngini = 0.2\nsamples = 6\nvalue = [0, 0, 1, 10, 0, 0, 0, 0, 0, 0]"] ;
315 -> 316 ;
317 [label="gini = 0.0\nsamples = 5\nvalue = [0, 0, 0, 10, 0, 0, 0, 0, 0, 0]"] ;
316 -> 317 ;
318 [label="gini = 0.0\nsamples = 1\nvalue = [0, 0, 1, 0, 0, 0, 0, 0, 0, 0]"] ;
316 -> 318 ;
319 [label="pixel235 <= 247.5\ngini = 0.5\nsamples = 3\nvalue = [0, 0, 0, 0, 0, 3, 0, 0, 0, 2]"] ;
315 -> 319 ;
320 [label="gini = 0.0\nsamples = 2\nvalue = [0, 0, 0, 0, 0, 0, 0, 0, 0, 2]"] ;
319 -> 320 ;
321 [label="gini = 0.0\nsamples = 1\nvalue = [0, 0, 0, 0, 0, 3, 0, 0, 0, 0]"] ;
319 -> 321 ;
322 [label="pixel572 <= 226.0\ngini = 0.5\nsamples = 10\nvalue = [0, 0, 11, 2, 0, 0, 0, 3, 0, 0]"] ;
228 -> 322 ;
323 [label="gini = 0.0\nsamples = 2\nvalue = [0, 0, 0, 2, 0, 0, 0, 0, 0, 0]"] ;
322 -> 323 ;
324 [label="pixel381 <= 232.0\ngini = 0.3\nsamples = 8\nvalue = [0, 0, 11, 0, 0, 0, 0, 3, 0, 0]"] ;
322 -> 324 ;
325 [label="gini = 0.0\nsamples = 5\nvalue = [0, 0, 10, 0, 0, 0, 0, 0, 0, 0]"] ;
324 -> 325 ;
326 [label="pixel208 <= 243.5\ngini = 0.4\nsamples = 3\nvalue = [0, 0, 1, 0, 0, 0, 0, 3, 0, 0]"] ;
324 -> 326 ;
327 [label="gini = 0.0\nsamples = 1\nvalue = [0, 0, 1, 0, 0, 0, 0, 0, 0, 0]"] ;
326 -> 327 ;
328 [label="gini = 0.0\nsamples = 2\nvalue = [0, 0, 0, 0, 0, 0, 0, 3, 0, 0]"] ;
326 -> 328 ;
329 [label="pixel481 <= 182.5\ngini = 0.6\nsamples = 11\nvalue = [8, 0, 4, 7, 0, 0, 0, 0, 0, 0]"] ;
227 -> 329 ;
330 [label="pixel626 <= 126.0\ngini = 0.5\nsamples = 6\nvalue = [0, 0, 4, 7, 0, 0, 0, 0, 0, 0]"] ;
329 -> 330 ;
331 [label="gini = 0.0\nsamples = 3\nvalue = [0, 0, 4, 0, 0, 0, 0, 0, 0, 0]"] ;
330 -> 331 ;
332 [label="gini = 0.0\nsamples = 3\nvalue = [0, 0, 0, 7, 0, 0, 0, 0, 0, 0]"] ;
330 -> 332 ;
333 [label="gini = 0.0\nsamples = 5\nvalue = [8, 0, 0, 0, 0, 0, 0, 0, 0, 0]"] ;
329 -> 333 ;
334 [label="pixel375 <= 218.5\ngini = 0.6\nsamples = 67\nvalue = [0, 0, 7, 10, 0, 2, 0, 22, 5, 56]"] ;
226 -> 334 ;
335 [label="pixel430 <= 34.5\ngini = 0.6\nsamples = 64\nvalue = [0, 0, 7, 4, 0, 2, 0, 22, 5, 56]"] ;
334 -> 335 ;
336 [label="pixel542 <= 10.5\ngini = 0.6\nsamples = 7\nvalue = [0, 0, 1, 0, 0, 1, 0, 5, 4, 0]"] ;
335 -> 336 ;
337 [label="pixel434 <= 49.0\ngini = 0.4\nsamples = 6\nvalue = [0, 0, 1, 0, 0, 1, 0, 5, 0, 0]"] ;
336 -> 337 ;
338 [label="gini = 0.0\nsamples = 4\nvalue = [0, 0, 0, 0, 0, 0, 0, 5, 0, 0]"] ;
337 -> 338 ;
339 [label="pixel528 <= 126.5\ngini = 0.5\nsamples = 2\nvalue = [0, 0, 1, 0, 0, 1, 0, 0, 0, 0]"] ;
337 -> 339 ;
340 [label="gini = 0.0\nsamples = 1\nvalue = [0, 0, 0, 0, 0, 1, 0, 0, 0, 0]"] ;
339 -> 340 ;
341 [label="gini = 0.0\nsamples = 1\nvalue = [0, 0, 1, 0, 0, 0, 0, 0, 0, 0]"] ;
339 -> 341 ;
342 [label="gini = 0.0\nsamples = 1\nvalue = [0, 0, 0, 0, 0, 0, 0, 0, 4, 0]"] ;
336 -> 342 ;
343 [label="pixel342 <= 7.0\ngini = 0.5\nsamples = 57\nvalue = [0, 0, 6, 4, 0, 1, 0, 17, 1, 56]"] ;
335 -> 343 ;
344 [label="pixel181 <= 11.5\ngini = 0.7\nsamples = 25\nvalue = [0, 0, 6, 4, 0, 0, 0, 17, 0, 12]"] ;
343 -> 344 ;
345 [label="pixel235 <= 93.5\ngini = 0.4\nsamples = 14\nvalue = [0, 0, 4, 0, 0, 0, 0, 16, 0, 2]"] ;
344 -> 345 ;
346 [label="pixel409 <= 69.5\ngini = 0.3\nsamples = 3\nvalue = [0, 0, 4, 0, 0, 0, 0, 0, 0, 1]"] ;
345 -> 346 ;
347 [label="gini = 0.0\nsamples = 2\nvalue = [0, 0, 4, 0, 0, 0, 0, 0, 0, 0]"] ;
346 -> 347 ;
348 [label="gini = 0.0\nsamples = 1\nvalue = [0, 0, 0, 0, 0, 0, 0, 0, 0, 1]"] ;
346 -> 348 ;
349 [label="pixel240 <= 139.5\ngini = 0.1\nsamples = 11\nvalue = [0, 0, 0, 0, 0, 0, 0, 16, 0, 1]"] ;
345 -> 349 ;
350 [label="pixel210 <= 70.5\ngini = 0.4\nsamples = 2\nvalue = [0, 0, 0, 0, 0, 0, 0, 2, 0, 1]"] ;
349 -> 350 ;
351 [label="gini = 0.0\nsamples = 1\nvalue = [0, 0, 0, 0, 0, 0, 0, 2, 0, 0]"] ;
350 -> 351 ;
352 [label="gini = 0.0\nsamples = 1\nvalue = [0, 0, 0, 0, 0, 0, 0, 0, 0, 1]"] ;
350 -> 352 ;
353 [label="gini = 0.0\nsamples = 9\nvalue = [0, 0, 0, 0, 0, 0, 0, 14, 0, 0]"] ;
349 -> 353 ;
354 [label="pixel403 <= 55.0\ngini = 0.6\nsamples = 11\nvalue = [0, 0, 2, 4, 0, 0, 0, 1, 0, 10]"] ;
344 -> 354 ;
355 [label="gini = 0.0\nsamples = 4\nvalue = [0, 0, 0, 0, 0, 0, 0, 0, 0, 9]"] ;
354 -> 355 ;
356 [label="pixel633 <= 8.5\ngini = 0.7\nsamples = 7\nvalue = [0, 0, 2, 4, 0, 0, 0, 1, 0, 1]"] ;
354 -> 356 ;
357 [label="pixel262 <= 17.0\ngini = 0.6\nsamples = 4\nvalue = [0, 0, 2, 0, 0, 0, 0, 1, 0, 1]"] ;
356 -> 357 ;
358 [label="pixel272 <= 62.5\ngini = 0.5\nsamples = 2\nvalue = [0, 0, 0, 0, 0, 0, 0, 1, 0, 1]"] ;
357 -> 358 ;
359 [label="gini = 0.0\nsamples = 1\nvalue = [0, 0, 0, 0, 0, 0, 0, 0, 0, 1]"] ;
358 -> 359 ;
360 [label="gini = 0.0\nsamples = 1\nvalue = [0, 0, 0, 0, 0, 0, 0, 1, 0, 0]"] ;
358 -> 360 ;
361 [label="gini = 0.0\nsamples = 2\nvalue = [0, 0, 2, 0, 0, 0, 0, 0, 0, 0]"] ;
357 -> 361 ;
362 [label="gini = 0.0\nsamples = 3\nvalue = [0, 0, 0, 4, 0, 0, 0, 0, 0, 0]"] ;
356 -> 362 ;
363 [label="pixel681 <= 139.5\ngini = 0.1\nsamples = 32\nvalue = [0, 0, 0, 0, 0, 1, 0, 0, 1, 44]"] ;
343 -> 363 ;
364 [label="pixel633 <= 253.5\ngini = 0.0\nsamples = 31\nvalue = [0, 0, 0, 0, 0, 0, 0, 0, 1, 44]"] ;
363 -> 364 ;
365 [label="gini = 0.0\nsamples = 30\nvalue = [0, 0, 0, 0, 0, 0, 0, 0, 0, 44]"] ;
364 -> 365 ;
366 [label="gini = 0.0\nsamples = 1\nvalue = [0, 0, 0, 0, 0, 0, 0, 0, 1, 0]"] ;
364 -> 366 ;
367 [label="gini = 0.0\nsamples = 1\nvalue = [0, 0, 0, 0, 0, 1, 0, 0, 0, 0]"] ;
363 -> 367 ;
368 [label="gini = 0.0\nsamples = 3\nvalue = [0, 0, 0, 6, 0, 0, 0, 0, 0, 0]"] ;
334 -> 368 ;
369 [label="pixel443 <= 62.0\ngini = 0.7\nsamples = 38\nvalue = [22, 0, 12, 8, 0, 2, 0, 2, 0, 19]"] ;
225 -> 369 ;
370 [label="pixel460 <= 58.0\ngini = 0.7\nsamples = 25\nvalue = [0, 0, 10, 8, 0, 2, 0, 2, 0, 19]"] ;
369 -> 370 ;
371 [label="pixel212 <= 252.0\ngini = 0.6\nsamples = 11\nvalue = [0, 0, 8, 8, 0, 0, 0, 2, 0, 1]"] ;
370 -> 371 ;
372 [label="pixel148 <= 32.0\ngini = 0.5\nsamples = 8\nvalue = [0, 0, 8, 1, 0, 0, 0, 2, 0, 1]"] ;
371 -> 372 ;
373 [label="pixel581 <= 81.5\ngini = 0.6\nsamples = 3\nvalue = [0, 0, 0, 1, 0, 0, 0, 2, 0, 1]"] ;
372 -> 373 ;
374 [label="gini = 0.0\nsamples = 1\nvalue = [0, 0, 0, 0, 0, 0, 0, 2, 0, 0]"] ;
373 -> 374 ;
375 [label="pixel212 <= 11.5\ngini = 0.5\nsamples = 2\nvalue = [0, 0, 0, 1, 0, 0, 0, 0, 0, 1]"] ;
373 -> 375 ;
376 [label="gini = 0.0\nsamples = 1\nvalue = [0, 0, 0, 0, 0, 0, 0, 0, 0, 1]"] ;
375 -> 376 ;
377 [label="gini = 0.0\nsamples = 1\nvalue = [0, 0, 0, 1, 0, 0, 0, 0, 0, 0]"] ;
375 -> 377 ;
378 [label="gini = 0.0\nsamples = 5\nvalue = [0, 0, 8, 0, 0, 0, 0, 0, 0, 0]"] ;
372 -> 378 ;
379 [label="gini = 0.0\nsamples = 3\nvalue = [0, 0, 0, 7, 0, 0, 0, 0, 0, 0]"] ;
371 -> 379 ;
380 [label="pixel464 <= 254.5\ngini = 0.3\nsamples = 14\nvalue = [0, 0, 2, 0, 0, 2, 0, 0, 0, 18]"] ;
370 -> 380 ;
381 [label="pixel551 <= 118.5\ngini = 0.2\nsamples = 13\nvalue = [0, 0, 2, 0, 0, 0, 0, 0, 0, 18]"] ;
380 -> 381 ;
382 [label="gini = 0.0\nsamples = 2\nvalue = [0, 0, 2, 0, 0, 0, 0, 0, 0, 0]"] ;
381 -> 382 ;
383 [label="gini = 0.0\nsamples = 11\nvalue = [0, 0, 0, 0, 0, 0, 0, 0, 0, 18]"] ;
381 -> 383 ;
384 [label="gini = 0.0\nsamples = 1\nvalue = [0, 0, 0, 0, 0, 2, 0, 0, 0, 0]"] ;
380 -> 384 ;
385 [label="pixel628 <= 75.0\ngini = 0.2\nsamples = 13\nvalue = [22, 0, 2, 0, 0, 0, 0, 0, 0, 0]"] ;
369 -> 385 ;
386 [label="gini = 0.0\nsamples = 1\nvalue = [0, 0, 2, 0, 0, 0, 0, 0, 0, 0]"] ;
385 -> 386 ;
387 [label="gini = 0.0\nsamples = 12\nvalue = [22, 0, 0, 0, 0, 0, 0, 0, 0, 0]"] ;
385 -> 387 ;
388 [label="pixel492 <= 1.5\ngini = 0.7\nsamples = 532\nvalue = [101, 46, 464, 112, 68, 22, 1, 16, 15, 6]"] ;
4 -> 388 ;
389 [label="pixel302 <= 6.5\ngini = 0.8\nsamples = 171\nvalue = [100, 43, 36, 45, 26, 13, 1, 3, 1, 4]"] ;
388 -> 389 ;
390 [label="pixel409 <= 3.5\ngini = 0.8\nsamples = 111\nvalue = [15, 43, 33, 42, 26, 13, 1, 3, 1, 4]"] ;
389 -> 390 ;
391 [label="pixel152 <= 55.5\ngini = 0.7\nsamples = 51\nvalue = [15, 40, 7, 11, 1, 1, 0, 3, 1, 0]"] ;
390 -> 391 ;
392 [label="pixel490 <= 80.5\ngini = 0.3\nsamples = 31\nvalue = [3, 40, 0, 1, 1, 1, 0, 0, 1, 0]"] ;
391 -> 392 ;
393 [label="pixel323 <= 3.5\ngini = 0.7\nsamples = 7\nvalue = [3, 0, 0, 1, 1, 1, 0, 0, 1, 0]"] ;
392 -> 393 ;
394 [label="pixel434 <= 66.5\ngini = 0.4\nsamples = 4\nvalue = [3, 0, 0, 0, 1, 0, 0, 0, 0, 0]"] ;
393 -> 394 ;
395 [label="gini = 0.0\nsamples = 3\nvalue = [3, 0, 0, 0, 0, 0, 0, 0, 0, 0]"] ;
394 -> 395 ;
396 [label="gini = 0.0\nsamples = 1\nvalue = [0, 0, 0, 0, 1, 0, 0, 0, 0, 0]"] ;
394 -> 396 ;
397 [label="pixel329 <= 21.0\ngini = 0.7\nsamples = 3\nvalue = [0, 0, 0, 1, 0, 1, 0, 0, 1, 0]"] ;
393 -> 397 ;
398 [label="pixel351 <= 161.0\ngini = 0.5\nsamples = 2\nvalue = [0, 0, 0, 1, 0, 0, 0, 0, 1, 0]"] ;
397 -> 398 ;
399 [label="gini = 0.0\nsamples = 1\nvalue = [0, 0, 0, 0, 0, 0, 0, 0, 1, 0]"] ;
398 -> 399 ;
400 [label="gini = 0.0\nsamples = 1\nvalue = [0, 0, 0, 1, 0, 0, 0, 0, 0, 0]"] ;
398 -> 400 ;
401 [label="gini = 0.0\nsamples = 1\nvalue = [0, 0, 0, 0, 0, 1, 0, 0, 0, 0]"] ;
397 -> 401 ;
402 [label="gini = 0.0\nsamples = 24\nvalue = [0, 40, 0, 0, 0, 0, 0, 0, 0, 0]"] ;
392 -> 402 ;
403 [label="pixel540 <= 68.5\ngini = 0.7\nsamples = 20\nvalue = [12, 0, 7, 10, 0, 0, 0, 3, 0, 0]"] ;
391 -> 403 ;
404 [label="pixel241 <= 221.5\ngini = 0.7\nsamples = 11\nvalue = [1, 0, 7, 7, 0, 0, 0, 3, 0, 0]"] ;
403 -> 404 ;
405 [label="pixel454 <= 70.0\ngini = 0.2\nsamples = 5\nvalue = [1, 0, 0, 7, 0, 0, 0, 0, 0, 0]"] ;
404 -> 405 ;
406 [label="gini = 0.0\nsamples = 4\nvalue = [0, 0, 0, 7, 0, 0, 0, 0, 0, 0]"] ;
405 -> 406 ;
407 [label="gini = 0.0\nsamples = 1\nvalue = [1, 0, 0, 0, 0, 0, 0, 0, 0, 0]"] ;
405 -> 407 ;
408 [label="pixel634 <= 87.0\ngini = 0.4\nsamples = 6\nvalue = [0, 0, 7, 0, 0, 0, 0, 3, 0, 0]"] ;
404 -> 408 ;
409 [label="pixel351 <= 216.0\ngini = 0.5\nsamples = 3\nvalue = [0, 0, 2, 0, 0, 0, 0, 3, 0, 0]"] ;
408 -> 409 ;
410 [label="gini = 0.0\nsamples = 2\nvalue = [0, 0, 2, 0, 0, 0, 0, 0, 0, 0]"] ;
409 -> 410 ;
411 [label="gini = 0.0\nsamples = 1\nvalue = [0, 0, 0, 0, 0, 0, 0, 3, 0, 0]"] ;
409 -> 411 ;
412 [label="gini = 0.0\nsamples = 3\nvalue = [0, 0, 5, 0, 0, 0, 0, 0, 0, 0]"] ;
408 -> 412 ;
413 [label="pixel413 <= 204.0\ngini = 0.3\nsamples = 9\nvalue = [11, 0, 0, 3, 0, 0, 0, 0, 0, 0]"] ;
403 -> 413 ;
414 [label="pixel206 <= 182.0\ngini = 0.4\nsamples = 3\nvalue = [1, 0, 0, 3, 0, 0, 0, 0, 0, 0]"] ;
413 -> 414 ;
415 [label="gini = 0.0\nsamples = 2\nvalue = [0, 0, 0, 3, 0, 0, 0, 0, 0, 0]"] ;
414 -> 415 ;
416 [label="gini = 0.0\nsamples = 1\nvalue = [1, 0, 0, 0, 0, 0, 0, 0, 0, 0]"] ;
414 -> 416 ;
417 [label="gini = 0.0\nsamples = 6\nvalue = [10, 0, 0, 0, 0, 0, 0, 0, 0, 0]"] ;
413 -> 417 ;
418 [label="pixel153 <= 7.5\ngini = 0.8\nsamples = 60\nvalue = [0, 3, 26, 31, 25, 12, 1, 0, 0, 4]"] ;
390 -> 418 ;
419 [label="pixel600 <= 16.0\ngini = 0.5\nsamples = 19\nvalue = [0, 3, 3, 4, 25, 0, 0, 0, 0, 0]"] ;
418 -> 419 ;
420 [label="pixel571 <= 108.5\ngini = 0.1\nsamples = 13\nvalue = [0, 0, 2, 0, 23, 0, 0, 0, 0, 0]"] ;
419 -> 420 ;
421 [label="gini = 0.0\nsamples = 12\nvalue = [0, 0, 0, 0, 23, 0, 0, 0, 0, 0]"] ;
420 -> 421 ;
422 [label="gini = 0.0\nsamples = 1\nvalue = [0, 0, 2, 0, 0, 0, 0, 0, 0, 0]"] ;
420 -> 422 ;
423 [label="pixel517 <= 125.5\ngini = 0.7\nsamples = 6\nvalue = [0, 3, 1, 4, 2, 0, 0, 0, 0, 0]"] ;
419 -> 423 ;
424 [label="gini = 0.0\nsamples = 2\nvalue = [0, 0, 0, 4, 0, 0, 0, 0, 0, 0]"] ;
423 -> 424 ;
425 [label="pixel268 <= 252.0\ngini = 0.6\nsamples = 4\nvalue = [0, 3, 1, 0, 2, 0, 0, 0, 0, 0]"] ;
423 -> 425 ;
426 [label="pixel623 <= 52.0\ngini = 0.4\nsamples = 2\nvalue = [0, 0, 1, 0, 2, 0, 0, 0, 0, 0]"] ;
425 -> 426 ;
427 [label="gini = 0.0\nsamples = 1\nvalue = [0, 0, 0, 0, 2, 0, 0, 0, 0, 0]"] ;
426 -> 427 ;
428 [label="gini = 0.0\nsamples = 1\nvalue = [0, 0, 1, 0, 0, 0, 0, 0, 0, 0]"] ;
426 -> 428 ;
429 [label="gini = 0.0\nsamples = 2\nvalue = [0, 3, 0, 0, 0, 0, 0, 0, 0, 0]"] ;
425 -> 429 ;
430 [label="pixel491 <= 27.0\ngini = 0.7\nsamples = 41\nvalue = [0, 0, 23, 27, 0, 12, 1, 0, 0, 4]"] ;
418 -> 430 ;
431 [label="pixel580 <= 252.5\ngini = 0.6\nsamples = 29\nvalue = [0, 0, 5, 26, 0, 12, 1, 0, 0, 4]"] ;
430 -> 431 ;
432 [label="pixel401 <= 73.0\ngini = 0.6\nsamples = 26\nvalue = [0, 0, 5, 26, 0, 6, 1, 0, 0, 4]"] ;
431 -> 432 ;
433 [label="pixel152 <= 253.0\ngini = 0.4\nsamples = 21\nvalue = [0, 0, 1, 26, 0, 5, 1, 0, 0, 0]"] ;
432 -> 433 ;
434 [label="pixel370 <= 69.0\ngini = 0.1\nsamples = 18\nvalue = [0, 0, 0, 26, 0, 1, 1, 0, 0, 0]"] ;
433 -> 434 ;
435 [label="pixel570 <= 253.5\ngini = 0.1\nsamples = 17\nvalue = [0, 0, 0, 26, 0, 1, 0, 0, 0, 0]"] ;
434 -> 435 ;
436 [label="gini = 0.0\nsamples = 16\nvalue = [0, 0, 0, 26, 0, 0, 0, 0, 0, 0]"] ;
435 -> 436 ;
437 [label="gini = 0.0\nsamples = 1\nvalue = [0, 0, 0, 0, 0, 1, 0, 0, 0, 0]"] ;
435 -> 437 ;
438 [label="gini = 0.0\nsamples = 1\nvalue = [0, 0, 0, 0, 0, 0, 1, 0, 0, 0]"] ;
434 -> 438 ;
439 [label="pixel573 <= 12.0\ngini = 0.3\nsamples = 3\nvalue = [0, 0, 1, 0, 0, 4, 0, 0, 0, 0]"] ;
433 -> 439 ;
440 [label="gini = 0.0\nsamples = 2\nvalue = [0, 0, 0, 0, 0, 4, 0, 0, 0, 0]"] ;
439 -> 440 ;
441 [label="gini = 0.0\nsamples = 1\nvalue = [0, 0, 1, 0, 0, 0, 0, 0, 0, 0]"] ;
439 -> 441 ;
442 [label="pixel377 <= 83.5\ngini = 0.6\nsamples = 5\nvalue = [0, 0, 4, 0, 0, 1, 0, 0, 0, 4]"] ;
432 -> 442 ;
443 [label="gini = 0.0\nsamples = 2\nvalue = [0, 0, 0, 0, 0, 0, 0, 0, 0, 4]"] ;
442 -> 443 ;
444 [label="pixel437 <= 130.5\ngini = 0.3\nsamples = 3\nvalue = [0, 0, 4, 0, 0, 1, 0, 0, 0, 0]"] ;
442 -> 444 ;
445 [label="gini = 0.0\nsamples = 1\nvalue = [0, 0, 0, 0, 0, 1, 0, 0, 0, 0]"] ;
444 -> 445 ;
446 [label="gini = 0.0\nsamples = 2\nvalue = [0, 0, 4, 0, 0, 0, 0, 0, 0, 0]"] ;
444 -> 446 ;
447 [label="gini = 0.0\nsamples = 3\nvalue = [0, 0, 0, 0, 0, 6, 0, 0, 0, 0]"] ;
431 -> 447 ;
448 [label="pixel434 <= 244.0\ngini = 0.1\nsamples = 12\nvalue = [0, 0, 18, 1, 0, 0, 0, 0, 0, 0]"] ;
430 -> 448 ;
449 [label="gini = 0.0\nsamples = 10\nvalue = [0, 0, 17, 0, 0, 0, 0, 0, 0, 0]"] ;
448 -> 449 ;
450 [label="pixel323 <= 61.5\ngini = 0.5\nsamples = 2\nvalue = [0, 0, 1, 1, 0, 0, 0, 0, 0, 0]"] ;
448 -> 450 ;
451 [label="gini = 0.0\nsamples = 1\nvalue = [0, 0, 0, 1, 0, 0, 0, 0, 0, 0]"] ;
450 -> 451 ;
452 [label="gini = 0.0\nsamples = 1\nvalue = [0, 0, 1, 0, 0, 0, 0, 0, 0, 0]"] ;
450 -> 452 ;
453 [label="pixel435 <= 6.5\ngini = 0.1\nsamples = 60\nvalue = [85, 0, 3, 3, 0, 0, 0, 0, 0, 0]"] ;
389 -> 453 ;
454 [label="pixel605 <= 46.0\ngini = 0.0\nsamples = 56\nvalue = [85, 0, 1, 0, 0, 0, 0, 0, 0, 0]"] ;
453 -> 454 ;
455 [label="pixel653 <= 119.5\ngini = 0.2\nsamples = 6\nvalue = [6, 0, 1, 0, 0, 0, 0, 0, 0, 0]"] ;
454 -> 455 ;
456 [label="gini = 0.0\nsamples = 5\nvalue = [6, 0, 0, 0, 0, 0, 0, 0, 0, 0]"] ;
455 -> 456 ;
457 [label="gini = 0.0\nsamples = 1\nvalue = [0, 0, 1, 0, 0, 0, 0, 0, 0, 0]"] ;
455 -> 457 ;
458 [label="gini = 0.0\nsamples = 50\nvalue = [79, 0, 0, 0, 0, 0, 0, 0, 0, 0]"] ;
454 -> 458 ;
459 [label="pixel594 <= 243.5\ngini = 0.5\nsamples = 4\nvalue = [0, 0, 2, 3, 0, 0, 0, 0, 0, 0]"] ;
453 -> 459 ;
460 [label="gini = 0.0\nsamples = 3\nvalue = [0, 0, 0, 3, 0, 0, 0, 0, 0, 0]"] ;
459 -> 460 ;
461 [label="gini = 0.0\nsamples = 1\nvalue = [0, 0, 2, 0, 0, 0, 0, 0, 0, 0]"] ;
459 -> 461 ;
462 [label="pixel351 <= 1.0\ngini = 0.4\nsamples = 361\nvalue = [1, 3, 428, 67, 42, 9, 0, 13, 14, 2]"] ;
388 -> 462 ;
463 [label="pixel316 <= 39.5\ngini = 0.3\nsamples = 291\nvalue = [1, 1, 399, 15, 29, 3, 0, 4, 11, 2]"] ;
462 -> 463 ;
464 [label="pixel343 <= 19.0\ngini = 0.2\nsamples = 276\nvalue = [1, 1, 398, 15, 12, 2, 0, 4, 10, 0]"] ;
463 -> 464 ;
465 [label="pixel683 <= 32.5\ngini = 0.1\nsamples = 268\nvalue = [1, 1, 398, 13, 3, 2, 0, 4, 8, 0]"] ;
464 -> 465 ;
466 [label="pixel438 <= 17.0\ngini = 0.1\nsamples = 258\nvalue = [1, 1, 390, 13, 3, 0, 0, 1, 2, 0]"] ;
465 -> 466 ;
467 [label="pixel570 <= 94.0\ngini = 0.4\nsamples = 32\nvalue = [0, 1, 35, 9, 0, 0, 0, 0, 2, 0]"] ;
466 -> 467 ;
468 [label="pixel661 <= 11.0\ngini = 0.6\nsamples = 12\nvalue = [0, 1, 8, 9, 0, 0, 0, 0, 2, 0]"] ;
467 -> 468 ;
469 [label="pixel189 <= 82.5\ngini = 0.4\nsamples = 6\nvalue = [0, 0, 8, 3, 0, 0, 0, 0, 0, 0]"] ;
468 -> 469 ;
470 [label="gini = 0.0\nsamples = 5\nvalue = [0, 0, 8, 0, 0, 0, 0, 0, 0, 0]"] ;
469 -> 470 ;
471 [label="gini = 0.0\nsamples = 1\nvalue = [0, 0, 0, 3, 0, 0, 0, 0, 0, 0]"] ;
469 -> 471 ;
472 [label="pixel629 <= 142.0\ngini = 0.5\nsamples = 6\nvalue = [0, 1, 0, 6, 0, 0, 0, 0, 2, 0]"] ;
468 -> 472 ;
473 [label="gini = 0.0\nsamples = 3\nvalue = [0, 0, 0, 5, 0, 0, 0, 0, 0, 0]"] ;
472 -> 473 ;
474 [label="pixel520 <= 214.0\ngini = 0.6\nsamples = 3\nvalue = [0, 1, 0, 1, 0, 0, 0, 0, 2, 0]"] ;
472 -> 474 ;
475 [label="pixel659 <= 221.5\ngini = 0.5\nsamples = 2\nvalue = [0, 1, 0, 1, 0, 0, 0, 0, 0, 0]"] ;
474 -> 475 ;
476 [label="gini = 0.0\nsamples = 1\nvalue = [0, 1, 0, 0, 0, 0, 0, 0, 0, 0]"] ;
475 -> 476 ;
477 [label="gini = 0.0\nsamples = 1\nvalue = [0, 0, 0, 1, 0, 0, 0, 0, 0, 0]"] ;
475 -> 477 ;
478 [label="gini = 0.0\nsamples = 1\nvalue = [0, 0, 0, 0, 0, 0, 0, 0, 2, 0]"] ;
474 -> 478 ;
479 [label="gini = 0.0\nsamples = 20\nvalue = [0, 0, 27, 0, 0, 0, 0, 0, 0, 0]"] ;
467 -> 479 ;
480 [label="pixel353 <= 250.0\ngini = 0.0\nsamples = 226\nvalue = [1, 0, 355, 4, 3, 0, 0, 1, 0, 0]"] ;
466 -> 480 ;
481 [label="pixel267 <= 128.5\ngini = 0.0\nsamples = 202\nvalue = [1, 0, 329, 3, 0, 0, 0, 0, 0, 0]"] ;
480 -> 481 ;
482 [label="pixel662 <= 74.5\ngini = 0.0\nsamples = 199\nvalue = [0, 0, 328, 1, 0, 0, 0, 0, 0, 0]"] ;
481 -> 482 ;
483 [label="gini = 0.0\nsamples = 186\nvalue = [0, 0, 306, 0, 0, 0, 0, 0, 0, 0]"] ;
482 -> 483 ;
484 [label="pixel487 <= 41.5\ngini = 0.1\nsamples = 13\nvalue = [0, 0, 22, 1, 0, 0, 0, 0, 0, 0]"] ;
482 -> 484 ;
485 [label="gini = 0.0\nsamples = 10\nvalue = [0, 0, 19, 0, 0, 0, 0, 0, 0, 0]"] ;
484 -> 485 ;
486 [label="pixel566 <= 252.5\ngini = 0.4\nsamples = 3\nvalue = [0, 0, 3, 1, 0, 0, 0, 0, 0, 0]"] ;
484 -> 486 ;
487 [label="gini = 0.0\nsamples = 1\nvalue = [0, 0, 0, 1, 0, 0, 0, 0, 0, 0]"] ;
486 -> 487 ;
488 [label="gini = 0.0\nsamples = 2\nvalue = [0, 0, 3, 0, 0, 0, 0, 0, 0, 0]"] ;
486 -> 488 ;
489 [label="pixel547 <= 252.5\ngini = 0.6\nsamples = 3\nvalue = [1, 0, 1, 2, 0, 0, 0, 0, 0, 0]"] ;
481 -> 489 ;
490 [label="gini = 0.0\nsamples = 1\nvalue = [0, 0, 0, 2, 0, 0, 0, 0, 0, 0]"] ;
489 -> 490 ;
491 [label="pixel570 <= 190.5\ngini = 0.5\nsamples = 2\nvalue = [1, 0, 1, 0, 0, 0, 0, 0, 0, 0]"] ;
489 -> 491 ;
492 [label="gini = 0.0\nsamples = 1\nvalue = [1, 0, 0, 0, 0, 0, 0, 0, 0, 0]"] ;
491 -> 492 ;
493 [label="gini = 0.0\nsamples = 1\nvalue = [0, 0, 1, 0, 0, 0, 0, 0, 0, 0]"] ;
491 -> 493 ;
494 [label="pixel411 <= 230.5\ngini = 0.3\nsamples = 24\nvalue = [0, 0, 26, 1, 3, 0, 0, 1, 0, 0]"] ;
480 -> 494 ;
495 [label="pixel687 <= 81.5\ngini = 0.2\nsamples = 22\nvalue = [0, 0, 26, 1, 1, 0, 0, 1, 0, 0]"] ;
494 -> 495 ;
496 [label="pixel381 <= 202.0\ngini = 0.1\nsamples = 20\nvalue = [0, 0, 26, 1, 0, 0, 0, 0, 0, 0]"] ;
495 -> 496 ;
497 [label="gini = 0.0\nsamples = 1\nvalue = [0, 0, 0, 1, 0, 0, 0, 0, 0, 0]"] ;
496 -> 497 ;
498 [label="gini = 0.0\nsamples = 19\nvalue = [0, 0, 26, 0, 0, 0, 0, 0, 0, 0]"] ;
496 -> 498 ;
499 [label="pixel182 <= 114.0\ngini = 0.5\nsamples = 2\nvalue = [0, 0, 0, 0, 1, 0, 0, 1, 0, 0]"] ;
495 -> 499 ;
500 [label="gini = 0.0\nsamples = 1\nvalue = [0, 0, 0, 0, 1, 0, 0, 0, 0, 0]"] ;
499 -> 500 ;
501 [label="gini = 0.0\nsamples = 1\nvalue = [0, 0, 0, 0, 0, 0, 0, 1, 0, 0]"] ;
499 -> 501 ;
502 [label="gini = 0.0\nsamples = 2\nvalue = [0, 0, 0, 0, 2, 0, 0, 0, 0, 0]"] ;
494 -> 502 ;
503 [label="pixel183 <= 228.5\ngini = 0.7\nsamples = 10\nvalue = [0, 0, 8, 0, 0, 2, 0, 3, 6, 0]"] ;
465 -> 503 ;
504 [label="gini = 0.0\nsamples = 2\nvalue = [0, 0, 0, 0, 0, 0, 0, 0, 6, 0]"] ;
503 -> 504 ;
505 [label="pixel630 <= 50.5\ngini = 0.5\nsamples = 8\nvalue = [0, 0, 8, 0, 0, 2, 0, 3, 0, 0]"] ;
503 -> 505 ;
506 [label="gini = 0.0\nsamples = 3\nvalue = [0, 0, 0, 0, 0, 0, 0, 3, 0, 0]"] ;
505 -> 506 ;
507 [label="pixel598 <= 6.0\ngini = 0.3\nsamples = 5\nvalue = [0, 0, 8, 0, 0, 2, 0, 0, 0, 0]"] ;
505 -> 507 ;
508 [label="gini = 0.0\nsamples = 1\nvalue = [0, 0, 0, 0, 0, 2, 0, 0, 0, 0]"] ;
507 -> 508 ;
509 [label="gini = 0.0\nsamples = 4\nvalue = [0, 0, 8, 0, 0, 0, 0, 0, 0, 0]"] ;
507 -> 509 ;
510 [label="pixel549 <= 127.5\ngini = 0.5\nsamples = 8\nvalue = [0, 0, 0, 2, 9, 0, 0, 0, 2, 0]"] ;
464 -> 510 ;
511 [label="pixel552 <= 76.5\ngini = 0.6\nsamples = 3\nvalue = [0, 0, 0, 2, 1, 0, 0, 0, 2, 0]"] ;
510 -> 511 ;
512 [label="gini = 0.0\nsamples = 1\nvalue = [0, 0, 0, 0, 0, 0, 0, 0, 2, 0]"] ;
511 -> 512 ;
513 [label="pixel468 <= 57.5\ngini = 0.4\nsamples = 2\nvalue = [0, 0, 0, 2, 1, 0, 0, 0, 0, 0]"] ;
511 -> 513 ;
514 [label="gini = 0.0\nsamples = 1\nvalue = [0, 0, 0, 2, 0, 0, 0, 0, 0, 0]"] ;
513 -> 514 ;
515 [label="gini = 0.0\nsamples = 1\nvalue = [0, 0, 0, 0, 1, 0, 0, 0, 0, 0]"] ;
513 -> 515 ;
516 [label="gini = 0.0\nsamples = 5\nvalue = [0, 0, 0, 0, 8, 0, 0, 0, 0, 0]"] ;
510 -> 516 ;
517 [label="pixel152 <= 15.5\ngini = 0.4\nsamples = 15\nvalue = [0, 0, 1, 0, 17, 1, 0, 0, 1, 2]"] ;
463 -> 517 ;
518 [label="pixel191 <= 90.0\ngini = 0.1\nsamples = 12\nvalue = [0, 0, 0, 0, 17, 0, 0, 0, 1, 0]"] ;
517 -> 518 ;
519 [label="gini = 0.0\nsamples = 11\nvalue = [0, 0, 0, 0, 17, 0, 0, 0, 0, 0]"] ;
518 -> 519 ;
520 [label="gini = 0.0\nsamples = 1\nvalue = [0, 0, 0, 0, 0, 0, 0, 0, 1, 0]"] ;
518 -> 520 ;
521 [label="pixel259 <= 120.5\ngini = 0.6\nsamples = 3\nvalue = [0, 0, 1, 0, 0, 1, 0, 0, 0, 2]"] ;
517 -> 521 ;
522 [label="gini = 0.0\nsamples = 1\nvalue = [0, 0, 0, 0, 0, 0, 0, 0, 0, 2]"] ;
521 -> 522 ;
523 [label="pixel371 <= 126.0\ngini = 0.5\nsamples = 2\nvalue = [0, 0, 1, 0, 0, 1, 0, 0, 0, 0]"] ;
521 -> 523 ;
524 [label="gini = 0.0\nsamples = 1\nvalue = [0, 0, 1, 0, 0, 0, 0, 0, 0, 0]"] ;
523 -> 524 ;
525 [label="gini = 0.0\nsamples = 1\nvalue = [0, 0, 0, 0, 0, 1, 0, 0, 0, 0]"] ;
523 -> 525 ;
526 [label="pixel543 <= 6.0\ngini = 0.7\nsamples = 70\nvalue = [0, 2, 29, 52, 13, 6, 0, 9, 3, 0]"] ;
462 -> 526 ;
527 [label="pixel429 <= 95.0\ngini = 0.6\nsamples = 42\nvalue = [0, 1, 3, 42, 13, 4, 0, 8, 2, 0]"] ;
526 -> 527 ;
528 [label="pixel378 <= 125.0\ngini = 0.4\nsamples = 28\nvalue = [0, 1, 0, 41, 1, 4, 0, 5, 0, 0]"] ;
527 -> 528 ;
529 [label="pixel539 <= 254.0\ngini = 0.3\nsamples = 25\nvalue = [0, 1, 0, 40, 0, 4, 0, 2, 0, 0]"] ;
528 -> 529 ;
530 [label="pixel243 <= 15.5\ngini = 0.2\nsamples = 24\nvalue = [0, 1, 0, 40, 0, 1, 0, 2, 0, 0]"] ;
529 -> 530 ;
531 [label="pixel408 <= 225.5\ngini = 0.5\nsamples = 9\nvalue = [0, 1, 0, 10, 0, 1, 0, 2, 0, 0]"] ;
530 -> 531 ;
532 [label="pixel521 <= 254.5\ngini = 0.2\nsamples = 7\nvalue = [0, 0, 0, 10, 0, 1, 0, 0, 0, 0]"] ;
531 -> 532 ;
533 [label="gini = 0.0\nsamples = 6\nvalue = [0, 0, 0, 10, 0, 0, 0, 0, 0, 0]"] ;
532 -> 533 ;
534 [label="gini = 0.0\nsamples = 1\nvalue = [0, 0, 0, 0, 0, 1, 0, 0, 0, 0]"] ;
532 -> 534 ;
535 [label="pixel545 <= 53.5\ngini = 0.4\nsamples = 2\nvalue = [0, 1, 0, 0, 0, 0, 0, 2, 0, 0]"] ;
531 -> 535 ;
536 [label="gini = 0.0\nsamples = 1\nvalue = [0, 1, 0, 0, 0, 0, 0, 0, 0, 0]"] ;
535 -> 536 ;
537 [label="gini = 0.0\nsamples = 1\nvalue = [0, 0, 0, 0, 0, 0, 0, 2, 0, 0]"] ;
535 -> 537 ;
538 [label="gini = 0.0\nsamples = 15\nvalue = [0, 0, 0, 30, 0, 0, 0, 0, 0, 0]"] ;
530 -> 538 ;
539 [label="gini = 0.0\nsamples = 1\nvalue = [0, 0, 0, 0, 0, 3, 0, 0, 0, 0]"] ;
529 -> 539 ;
540 [label="pixel184 <= 253.5\ngini = 0.6\nsamples = 3\nvalue = [0, 0, 0, 1, 1, 0, 0, 3, 0, 0]"] ;
528 -> 540 ;
541 [label="pixel661 <= 25.0\ngini = 0.5\nsamples = 2\nvalue = [0, 0, 0, 1, 1, 0, 0, 0, 0, 0]"] ;
540 -> 541 ;
542 [label="gini = 0.0\nsamples = 1\nvalue = [0, 0, 0, 1, 0, 0, 0, 0, 0, 0]"] ;
541 -> 542 ;
543 [label="gini = 0.0\nsamples = 1\nvalue = [0, 0, 0, 0, 1, 0, 0, 0, 0, 0]"] ;
541 -> 543 ;
544 [label="gini = 0.0\nsamples = 1\nvalue = [0, 0, 0, 0, 0, 0, 0, 3, 0, 0]"] ;
540 -> 544 ;
545 [label="pixel513 <= 95.0\ngini = 0.6\nsamples = 14\nvalue = [0, 0, 3, 1, 12, 0, 0, 3, 2, 0]"] ;
527 -> 545 ;
546 [label="pixel152 <= 66.5\ngini = 0.5\nsamples = 13\nvalue = [0, 0, 0, 1, 12, 0, 0, 3, 2, 0]"] ;
545 -> 546 ;
547 [label="pixel404 <= 241.5\ngini = 0.1\nsamples = 9\nvalue = [0, 0, 0, 0, 12, 0, 0, 1, 0, 0]"] ;
546 -> 547 ;
548 [label="gini = 0.0\nsamples = 8\nvalue = [0, 0, 0, 0, 12, 0, 0, 0, 0, 0]"] ;
547 -> 548 ;
549 [label="gini = 0.0\nsamples = 1\nvalue = [0, 0, 0, 0, 0, 0, 0, 1, 0, 0]"] ;
547 -> 549 ;
550 [label="pixel187 <= 7.5\ngini = 0.6\nsamples = 4\nvalue = [0, 0, 0, 1, 0, 0, 0, 2, 2, 0]"] ;
546 -> 550 ;
551 [label="pixel464 <= 250.5\ngini = 0.4\nsamples = 3\nvalue = [0, 0, 0, 1, 0, 0, 0, 0, 2, 0]"] ;
550 -> 551 ;
552 [label="gini = 0.0\nsamples = 1\nvalue = [0, 0, 0, 1, 0, 0, 0, 0, 0, 0]"] ;
551 -> 552 ;
553 [label="gini = 0.0\nsamples = 2\nvalue = [0, 0, 0, 0, 0, 0, 0, 0, 2, 0]"] ;
551 -> 553 ;
554 [label="gini = 0.0\nsamples = 1\nvalue = [0, 0, 0, 0, 0, 0, 0, 2, 0, 0]"] ;
550 -> 554 ;
555 [label="gini = 0.0\nsamples = 1\nvalue = [0, 0, 3, 0, 0, 0, 0, 0, 0, 0]"] ;
545 -> 555 ;
556 [label="pixel520 <= 107.0\ngini = 0.5\nsamples = 28\nvalue = [0, 1, 26, 10, 0, 2, 0, 1, 1, 0]"] ;
526 -> 556 ;
557 [label="pixel213 <= 31.0\ngini = 0.1\nsamples = 12\nvalue = [0, 0, 18, 0, 0, 0, 0, 1, 0, 0]"] ;
556 -> 557 ;
558 [label="gini = 0.0\nsamples = 1\nvalue = [0, 0, 0, 0, 0, 0, 0, 1, 0, 0]"] ;
557 -> 558 ;
559 [label="gini = 0.0\nsamples = 11\nvalue = [0, 0, 18, 0, 0, 0, 0, 0, 0, 0]"] ;
557 -> 559 ;
560 [label="pixel599 <= 248.5\ngini = 0.6\nsamples = 16\nvalue = [0, 1, 8, 10, 0, 2, 0, 0, 1, 0]"] ;
556 -> 560 ;
561 [label="pixel428 <= 0.5\ngini = 0.6\nsamples = 6\nvalue = [0, 0, 5, 1, 0, 2, 0, 0, 1, 0]"] ;
560 -> 561 ;
562 [label="pixel621 <= 81.5\ngini = 0.6\nsamples = 3\nvalue = [0, 0, 0, 1, 0, 2, 0, 0, 1, 0]"] ;
561 -> 562 ;
563 [label="pixel523 <= 7.0\ngini = 0.5\nsamples = 2\nvalue = [0, 0, 0, 1, 0, 0, 0, 0, 1, 0]"] ;
562 -> 563 ;
564 [label="gini = 0.0\nsamples = 1\nvalue = [0, 0, 0, 0, 0, 0, 0, 0, 1, 0]"] ;
563 -> 564 ;
565 [label="gini = 0.0\nsamples = 1\nvalue = [0, 0, 0, 1, 0, 0, 0, 0, 0, 0]"] ;
563 -> 565 ;
566 [label="gini = 0.0\nsamples = 1\nvalue = [0, 0, 0, 0, 0, 2, 0, 0, 0, 0]"] ;
562 -> 566 ;
567 [label="gini = 0.0\nsamples = 3\nvalue = [0, 0, 5, 0, 0, 0, 0, 0, 0, 0]"] ;
561 -> 567 ;
568 [label="pixel151 <= 140.5\ngini = 0.5\nsamples = 10\nvalue = [0, 1, 3, 9, 0, 0, 0, 0, 0, 0]"] ;
560 -> 568 ;
569 [label="pixel538 <= 45.5\ngini = 0.3\nsamples = 8\nvalue = [0, 1, 1, 9, 0, 0, 0, 0, 0, 0]"] ;
568 -> 569 ;
570 [label="gini = 0.0\nsamples = 1\nvalue = [0, 1, 0, 0, 0, 0, 0, 0, 0, 0]"] ;
569 -> 570 ;
571 [label="pixel511 <= 200.0\ngini = 0.2\nsamples = 7\nvalue = [0, 0, 1, 9, 0, 0, 0, 0, 0, 0]"] ;
569 -> 571 ;
572 [label="gini = 0.0\nsamples = 6\nvalue = [0, 0, 0, 9, 0, 0, 0, 0, 0, 0]"] ;
571 -> 572 ;
573 [label="gini = 0.0\nsamples = 1\nvalue = [0, 0, 1, 0, 0, 0, 0, 0, 0, 0]"] ;
571 -> 573 ;
574 [label="gini = 0.0\nsamples = 2\nvalue = [0, 0, 2, 0, 0, 0, 0, 0, 0, 0]"] ;
568 -> 574 ;
575 [label="pixel126 <= 0.5\ngini = 0.4\nsamples = 1555\nvalue = [48, 21, 1861, 29, 109, 24, 86, 181, 50, 96]"] ;
3 -> 575 ;
576 [label="pixel341 <= 3.0\ngini = 0.7\nsamples = 714\nvalue = [28, 21, 548, 27, 107, 21, 56, 181, 40, 94]"] ;
575 -> 576 ;
577 [label="pixel156 <= 3.5\ngini = 0.6\nsamples = 571\nvalue = [3, 21, 540, 26, 37, 21, 32, 176, 32, 25]"] ;
576 -> 577 ;
578 [label="pixel178 <= 154.5\ngini = 0.7\nsamples = 348\nvalue = [1, 20, 246, 12, 30, 15, 29, 163, 5, 24]"] ;
577 -> 578 ;
579 [label="pixel510 <= 48.5\ngini = 0.8\nsamples = 248\nvalue = [1, 20, 121, 9, 30, 15, 27, 132, 5, 19]"] ;
578 -> 579 ;
580 [label="pixel239 <= 176.5\ngini = 0.8\nsamples = 191\nvalue = [1, 20, 57, 5, 27, 9, 25, 125, 5, 16]"] ;
579 -> 580 ;
581 [label="pixel571 <= 12.5\ngini = 0.8\nsamples = 89\nvalue = [0, 20, 31, 1, 27, 8, 25, 20, 2, 8]"] ;
580 -> 581 ;
582 [label="pixel210 <= 14.0\ngini = 0.8\nsamples = 42\nvalue = [0, 2, 8, 1, 26, 8, 3, 17, 0, 7]"] ;
581 -> 582 ;
583 [label="pixel264 <= 10.5\ngini = 0.7\nsamples = 19\nvalue = [0, 2, 5, 0, 20, 6, 3, 0, 0, 3]"] ;
582 -> 583 ;
584 [label="pixel302 <= 5.5\ngini = 0.5\nsamples = 16\nvalue = [0, 2, 0, 0, 20, 6, 3, 0, 0, 0]"] ;
583 -> 584 ;
585 [label="pixel583 <= 127.5\ngini = 0.2\nsamples = 11\nvalue = [0, 2, 0, 0, 20, 0, 1, 0, 0, 0]"] ;
584 -> 585 ;
586 [label="pixel378 <= 64.0\ngini = 0.2\nsamples = 10\nvalue = [0, 2, 0, 0, 20, 0, 0, 0, 0, 0]"] ;
585 -> 586 ;
587 [label="gini = 0.0\nsamples = 9\nvalue = [0, 0, 0, 0, 20, 0, 0, 0, 0, 0]"] ;
586 -> 587 ;
588 [label="gini = 0.0\nsamples = 1\nvalue = [0, 2, 0, 0, 0, 0, 0, 0, 0, 0]"] ;
586 -> 588 ;
589 [label="gini = 0.0\nsamples = 1\nvalue = [0, 0, 0, 0, 0, 0, 1, 0, 0, 0]"] ;
585 -> 589 ;
590 [label="pixel576 <= 121.0\ngini = 0.4\nsamples = 5\nvalue = [0, 0, 0, 0, 0, 6, 2, 0, 0, 0]"] ;
584 -> 590 ;
591 [label="gini = 0.0\nsamples = 4\nvalue = [0, 0, 0, 0, 0, 6, 0, 0, 0, 0]"] ;
590 -> 591 ;
592 [label="gini = 0.0\nsamples = 1\nvalue = [0, 0, 0, 0, 0, 0, 2, 0, 0, 0]"] ;
590 -> 592 ;
593 [label="pixel519 <= 8.5\ngini = 0.5\nsamples = 3\nvalue = [0, 0, 5, 0, 0, 0, 0, 0, 0, 3]"] ;
583 -> 593 ;
594 [label="gini = 0.0\nsamples = 1\nvalue = [0, 0, 0, 0, 0, 0, 0, 0, 0, 3]"] ;
593 -> 594 ;
595 [label="gini = 0.0\nsamples = 2\nvalue = [0, 0, 5, 0, 0, 0, 0, 0, 0, 0]"] ;
593 -> 595 ;
596 [label="pixel186 <= 7.0\ngini = 0.7\nsamples = 23\nvalue = [0, 0, 3, 1, 6, 2, 0, 17, 0, 4]"] ;
582 -> 596 ;
597 [label="pixel603 <= 125.5\ngini = 0.7\nsamples = 9\nvalue = [0, 0, 3, 0, 6, 1, 0, 1, 0, 4]"] ;
596 -> 597 ;
598 [label="pixel426 <= 14.5\ngini = 0.7\nsamples = 8\nvalue = [0, 0, 3, 0, 0, 1, 0, 1, 0, 4]"] ;
597 -> 598 ;
599 [label="pixel605 <= 105.5\ngini = 0.7\nsamples = 5\nvalue = [0, 0, 3, 0, 0, 1, 0, 1, 0, 1]"] ;
598 -> 599 ;
600 [label="pixel176 <= 120.5\ngini = 0.4\nsamples = 3\nvalue = [0, 0, 3, 0, 0, 0, 0, 1, 0, 0]"] ;
599 -> 600 ;
601 [label="gini = 0.0\nsamples = 2\nvalue = [0, 0, 3, 0, 0, 0, 0, 0, 0, 0]"] ;
600 -> 601 ;
602 [label="gini = 0.0\nsamples = 1\nvalue = [0, 0, 0, 0, 0, 0, 0, 1, 0, 0]"] ;
600 -> 602 ;
603 [label="pixel264 <= 125.5\ngini = 0.5\nsamples = 2\nvalue = [0, 0, 0, 0, 0, 1, 0, 0, 0, 1]"] ;
599 -> 603 ;
604 [label="gini = 0.0\nsamples = 1\nvalue = [0, 0, 0, 0, 0, 0, 0, 0, 0, 1]"] ;
603 -> 604 ;
605 [label="gini = 0.0\nsamples = 1\nvalue = [0, 0, 0, 0, 0, 1, 0, 0, 0, 0]"] ;
603 -> 605 ;
606 [label="gini = 0.0\nsamples = 3\nvalue = [0, 0, 0, 0, 0, 0, 0, 0, 0, 3]"] ;
598 -> 606 ;
607 [label="gini = 0.0\nsamples = 1\nvalue = [0, 0, 0, 0, 6, 0, 0, 0, 0, 0]"] ;
597 -> 607 ;
608 [label="pixel494 <= 224.0\ngini = 0.2\nsamples = 14\nvalue = [0, 0, 0, 1, 0, 1, 0, 16, 0, 0]"] ;
596 -> 608 ;
609 [label="pixel221 <= 18.0\ngini = 0.1\nsamples = 13\nvalue = [0, 0, 0, 0, 0, 1, 0, 16, 0, 0]"] ;
608 -> 609 ;
610 [label="gini = 0.0\nsamples = 12\nvalue = [0, 0, 0, 0, 0, 0, 0, 16, 0, 0]"] ;
609 -> 610 ;
611 [label="gini = 0.0\nsamples = 1\nvalue = [0, 0, 0, 0, 0, 1, 0, 0, 0, 0]"] ;
609 -> 611 ;
612 [label="gini = 0.0\nsamples = 1\nvalue = [0, 0, 0, 1, 0, 0, 0, 0, 0, 0]"] ;
608 -> 612 ;
613 [label="pixel461 <= 83.0\ngini = 0.7\nsamples = 47\nvalue = [0, 18, 23, 0, 1, 0, 22, 3, 2, 1]"] ;
581 -> 613 ;
614 [label="pixel351 <= 10.5\ngini = 0.5\nsamples = 19\nvalue = [0, 0, 7, 0, 1, 0, 19, 0, 0, 1]"] ;
613 -> 614 ;
615 [label="pixel605 <= 32.0\ngini = 0.6\nsamples = 8\nvalue = [0, 0, 6, 0, 1, 0, 2, 0, 0, 1]"] ;
614 -> 615 ;
616 [label="pixel347 <= 90.5\ngini = 0.2\nsamples = 5\nvalue = [0, 0, 6, 0, 1, 0, 0, 0, 0, 0]"] ;
615 -> 616 ;
617 [label="gini = 0.0\nsamples = 4\nvalue = [0, 0, 6, 0, 0, 0, 0, 0, 0, 0]"] ;
616 -> 617 ;
618 [label="gini = 0.0\nsamples = 1\nvalue = [0, 0, 0, 0, 1, 0, 0, 0, 0, 0]"] ;
616 -> 618 ;
619 [label="pixel466 <= 75.5\ngini = 0.4\nsamples = 3\nvalue = [0, 0, 0, 0, 0, 0, 2, 0, 0, 1]"] ;
615 -> 619 ;
620 [label="gini = 0.0\nsamples = 2\nvalue = [0, 0, 0, 0, 0, 0, 2, 0, 0, 0]"] ;
619 -> 620 ;
621 [label="gini = 0.0\nsamples = 1\nvalue = [0, 0, 0, 0, 0, 0, 0, 0, 0, 1]"] ;
619 -> 621 ;
622 [label="pixel465 <= 205.0\ngini = 0.1\nsamples = 11\nvalue = [0, 0, 1, 0, 0, 0, 17, 0, 0, 0]"] ;
614 -> 622 ;
623 [label="gini = 0.0\nsamples = 8\nvalue = [0, 0, 0, 0, 0, 0, 14, 0, 0, 0]"] ;
622 -> 623 ;
624 [label="pixel491 <= 78.5\ngini = 0.4\nsamples = 3\nvalue = [0, 0, 1, 0, 0, 0, 3, 0, 0, 0]"] ;
622 -> 624 ;
625 [label="gini = 0.0\nsamples = 2\nvalue = [0, 0, 0, 0, 0, 0, 3, 0, 0, 0]"] ;
624 -> 625 ;
626 [label="gini = 0.0\nsamples = 1\nvalue = [0, 0, 1, 0, 0, 0, 0, 0, 0, 0]"] ;
624 -> 626 ;
627 [label="pixel653 <= 1.0\ngini = 0.7\nsamples = 28\nvalue = [0, 18, 16, 0, 0, 0, 3, 3, 2, 0]"] ;
613 -> 627 ;
628 [label="pixel162 <= 28.0\ngini = 0.3\nsamples = 14\nvalue = [0, 1, 16, 0, 0, 0, 3, 0, 0, 0]"] ;
627 -> 628 ;
629 [label="pixel376 <= 111.5\ngini = 0.3\nsamples = 13\nvalue = [0, 0, 16, 0, 0, 0, 3, 0, 0, 0]"] ;
628 -> 629 ;
630 [label="gini = 0.0\nsamples = 10\nvalue = [0, 0, 15, 0, 0, 0, 0, 0, 0, 0]"] ;
629 -> 630 ;
631 [label="pixel551 <= 74.5\ngini = 0.4\nsamples = 3\nvalue = [0, 0, 1, 0, 0, 0, 3, 0, 0, 0]"] ;
629 -> 631 ;
632 [label="gini = 0.0\nsamples = 2\nvalue = [0, 0, 0, 0, 0, 0, 3, 0, 0, 0]"] ;
631 -> 632 ;
633 [label="gini = 0.0\nsamples = 1\nvalue = [0, 0, 1, 0, 0, 0, 0, 0, 0, 0]"] ;
631 -> 633 ;
634 [label="gini = 0.0\nsamples = 1\nvalue = [0, 1, 0, 0, 0, 0, 0, 0, 0, 0]"] ;
628 -> 634 ;
635 [label="pixel188 <= 83.0\ngini = 0.4\nsamples = 14\nvalue = [0, 17, 0, 0, 0, 0, 0, 3, 2, 0]"] ;
627 -> 635 ;
636 [label="pixel519 <= 1.0\ngini = 0.5\nsamples = 3\nvalue = [0, 0, 0, 0, 0, 0, 0, 2, 2, 0]"] ;
635 -> 636 ;
637 [label="gini = 0.0\nsamples = 1\nvalue = [0, 0, 0, 0, 0, 0, 0, 0, 2, 0]"] ;
636 -> 637 ;
638 [label="gini = 0.0\nsamples = 2\nvalue = [0, 0, 0, 0, 0, 0, 0, 2, 0, 0]"] ;
636 -> 638 ;
639 [label="pixel705 <= 29.0\ngini = 0.1\nsamples = 11\nvalue = [0, 17, 0, 0, 0, 0, 0, 1, 0, 0]"] ;
635 -> 639 ;
640 [label="gini = 0.0\nsamples = 10\nvalue = [0, 17, 0, 0, 0, 0, 0, 0, 0, 0]"] ;
639 -> 640 ;
641 [label="gini = 0.0\nsamples = 1\nvalue = [0, 0, 0, 0, 0, 0, 0, 1, 0, 0]"] ;
639 -> 641 ;
642 [label="pixel610 <= 3.0\ngini = 0.5\nsamples = 102\nvalue = [1, 0, 26, 4, 0, 1, 0, 105, 3, 8]"] ;
580 -> 642 ;
643 [label="pixel434 <= 108.5\ngini = 0.4\nsamples = 94\nvalue = [1, 0, 17, 3, 0, 1, 0, 105, 3, 8]"] ;
642 -> 643 ;
644 [label="pixel578 <= 164.0\ngini = 0.6\nsamples = 36\nvalue = [1, 0, 15, 1, 0, 0, 0, 28, 0, 8]"] ;
643 -> 644 ;
645 [label="pixel234 <= 69.0\ngini = 0.5\nsamples = 27\nvalue = [0, 0, 12, 0, 0, 0, 0, 27, 0, 1]"] ;
644 -> 645 ;
646 [label="pixel189 <= 91.5\ngini = 0.2\nsamples = 6\nvalue = [0, 0, 7, 0, 0, 0, 0, 1, 0, 0]"] ;
645 -> 646 ;
647 [label="gini = 0.0\nsamples = 5\nvalue = [0, 0, 7, 0, 0, 0, 0, 0, 0, 0]"] ;
646 -> 647 ;
648 [label="gini = 0.0\nsamples = 1\nvalue = [0, 0, 0, 0, 0, 0, 0, 1, 0, 0]"] ;
646 -> 648 ;
649 [label="pixel465 <= 35.0\ngini = 0.3\nsamples = 21\nvalue = [0, 0, 5, 0, 0, 0, 0, 26, 0, 1]"] ;
645 -> 649 ;
650 [label="gini = 0.0\nsamples = 2\nvalue = [0, 0, 4, 0, 0, 0, 0, 0, 0, 0]"] ;
649 -> 650 ;
651 [label="pixel314 <= 7.5\ngini = 0.1\nsamples = 19\nvalue = [0, 0, 1, 0, 0, 0, 0, 26, 0, 1]"] ;
649 -> 651 ;
652 [label="pixel465 <= 72.0\ngini = 0.1\nsamples = 18\nvalue = [0, 0, 0, 0, 0, 0, 0, 26, 0, 1]"] ;
651 -> 652 ;
653 [label="pixel263 <= 202.0\ngini = 0.3\nsamples = 3\nvalue = [0, 0, 0, 0, 0, 0, 0, 4, 0, 1]"] ;
652 -> 653 ;
654 [label="gini = 0.0\nsamples = 2\nvalue = [0, 0, 0, 0, 0, 0, 0, 4, 0, 0]"] ;
653 -> 654 ;
655 [label="gini = 0.0\nsamples = 1\nvalue = [0, 0, 0, 0, 0, 0, 0, 0, 0, 1]"] ;
653 -> 655 ;
656 [label="gini = 0.0\nsamples = 15\nvalue = [0, 0, 0, 0, 0, 0, 0, 22, 0, 0]"] ;
652 -> 656 ;
657 [label="gini = 0.0\nsamples = 1\nvalue = [0, 0, 1, 0, 0, 0, 0, 0, 0, 0]"] ;
651 -> 657 ;
658 [label="pixel315 <= 202.0\ngini = 0.6\nsamples = 9\nvalue = [1, 0, 3, 1, 0, 0, 0, 1, 0, 7]"] ;
644 -> 658 ;
659 [label="pixel123 <= 79.0\ngini = 0.6\nsamples = 5\nvalue = [0, 0, 3, 1, 0, 0, 0, 1, 0, 0]"] ;
658 -> 659 ;
660 [label="pixel536 <= 91.0\ngini = 0.5\nsamples = 2\nvalue = [0, 0, 0, 1, 0, 0, 0, 1, 0, 0]"] ;
659 -> 660 ;
661 [label="gini = 0.0\nsamples = 1\nvalue = [0, 0, 0, 0, 0, 0, 0, 1, 0, 0]"] ;
660 -> 661 ;
662 [label="gini = 0.0\nsamples = 1\nvalue = [0, 0, 0, 1, 0, 0, 0, 0, 0, 0]"] ;
660 -> 662 ;
663 [label="gini = 0.0\nsamples = 3\nvalue = [0, 0, 3, 0, 0, 0, 0, 0, 0, 0]"] ;
659 -> 663 ;
664 [label="pixel573 <= 81.5\ngini = 0.2\nsamples = 4\nvalue = [1, 0, 0, 0, 0, 0, 0, 0, 0, 7]"] ;
658 -> 664 ;
665 [label="gini = 0.0\nsamples = 3\nvalue = [0, 0, 0, 0, 0, 0, 0, 0, 0, 7]"] ;
664 -> 665 ;
666 [label="gini = 0.0\nsamples = 1\nvalue = [1, 0, 0, 0, 0, 0, 0, 0, 0, 0]"] ;
664 -> 666 ;
667 [label="pixel607 <= 51.0\ngini = 0.2\nsamples = 58\nvalue = [0, 0, 2, 2, 0, 1, 0, 77, 3, 0]"] ;
643 -> 667 ;
668 [label="pixel463 <= 8.5\ngini = 0.1\nsamples = 57\nvalue = [0, 0, 2, 0, 0, 1, 0, 77, 3, 0]"] ;
667 -> 668 ;
669 [label="pixel180 <= 118.0\ngini = 0.4\nsamples = 2\nvalue = [0, 0, 1, 0, 0, 0, 0, 0, 2, 0]"] ;
668 -> 669 ;
670 [label="gini = 0.0\nsamples = 1\nvalue = [0, 0, 0, 0, 0, 0, 0, 0, 2, 0]"] ;
669 -> 670 ;
671 [label="gini = 0.0\nsamples = 1\nvalue = [0, 0, 1, 0, 0, 0, 0, 0, 0, 0]"] ;
669 -> 671 ;
672 [label="pixel550 <= 244.0\ngini = 0.1\nsamples = 55\nvalue = [0, 0, 1, 0, 0, 1, 0, 77, 1, 0]"] ;
668 -> 672 ;
673 [label="pixel488 <= 51.5\ngini = 0.1\nsamples = 53\nvalue = [0, 0, 1, 0, 0, 0, 0, 74, 1, 0]"] ;
672 -> 673 ;
674 [label="gini = 0.0\nsamples = 1\nvalue = [0, 0, 0, 0, 0, 0, 0, 0, 1, 0]"] ;
673 -> 674 ;
675 [label="pixel241 <= 35.5\ngini = 0.0\nsamples = 52\nvalue = [0, 0, 1, 0, 0, 0, 0, 74, 0, 0]"] ;
673 -> 675 ;
676 [label="gini = 0.0\nsamples = 1\nvalue = [0, 0, 1, 0, 0, 0, 0, 0, 0, 0]"] ;
675 -> 676 ;
677 [label="gini = 0.0\nsamples = 51\nvalue = [0, 0, 0, 0, 0, 0, 0, 74, 0, 0]"] ;
675 -> 677 ;
678 [label="pixel430 <= 97.0\ngini = 0.4\nsamples = 2\nvalue = [0, 0, 0, 0, 0, 1, 0, 3, 0, 0]"] ;
672 -> 678 ;
679 [label="gini = 0.0\nsamples = 1\nvalue = [0, 0, 0, 0, 0, 0, 0, 3, 0, 0]"] ;
678 -> 679 ;
680 [label="gini = 0.0\nsamples = 1\nvalue = [0, 0, 0, 0, 0, 1, 0, 0, 0, 0]"] ;
678 -> 680 ;
681 [label="gini = 0.0\nsamples = 1\nvalue = [0, 0, 0, 2, 0, 0, 0, 0, 0, 0]"] ;
667 -> 681 ;
682 [label="pixel611 <= 243.0\ngini = 0.2\nsamples = 8\nvalue = [0, 0, 9, 1, 0, 0, 0, 0, 0, 0]"] ;
642 -> 682 ;
683 [label="gini = 0.0\nsamples = 7\nvalue = [0, 0, 9, 0, 0, 0, 0, 0, 0, 0]"] ;
682 -> 683 ;
684 [label="gini = 0.0\nsamples = 1\nvalue = [0, 0, 0, 1, 0, 0, 0, 0, 0, 0]"] ;
682 -> 684 ;
685 [label="pixel286 <= 29.5\ngini = 0.5\nsamples = 57\nvalue = [0, 0, 64, 4, 3, 6, 2, 7, 0, 3]"] ;
579 -> 685 ;
686 [label="pixel288 <= 227.5\ngini = 0.4\nsamples = 51\nvalue = [0, 0, 62, 2, 0, 6, 2, 5, 0, 3]"] ;
685 -> 686 ;
687 [label="pixel220 <= 119.5\ngini = 0.3\nsamples = 49\nvalue = [0, 0, 62, 2, 0, 6, 0, 5, 0, 0]"] ;
686 -> 687 ;
688 [label="pixel460 <= 16.5\ngini = 0.2\nsamples = 48\nvalue = [0, 0, 62, 2, 0, 6, 0, 2, 0, 0]"] ;
687 -> 688 ;
689 [label="pixel383 <= 26.5\ngini = 0.5\nsamples = 5\nvalue = [0, 0, 3, 0, 0, 5, 0, 0, 0, 0]"] ;
688 -> 689 ;
690 [label="gini = 0.0\nsamples = 2\nvalue = [0, 0, 0, 0, 0, 5, 0, 0, 0, 0]"] ;
689 -> 690 ;
691 [label="gini = 0.0\nsamples = 3\nvalue = [0, 0, 3, 0, 0, 0, 0, 0, 0, 0]"] ;
689 -> 691 ;
692 [label="pixel635 <= 113.5\ngini = 0.1\nsamples = 43\nvalue = [0, 0, 59, 2, 0, 1, 0, 2, 0, 0]"] ;
688 -> 692 ;
693 [label="pixel510 <= 65.0\ngini = 0.1\nsamples = 41\nvalue = [0, 0, 58, 0, 0, 1, 0, 2, 0, 0]"] ;
692 -> 693 ;
694 [label="pixel510 <= 56.5\ngini = 0.4\nsamples = 3\nvalue = [0, 0, 1, 0, 0, 0, 0, 2, 0, 0]"] ;
693 -> 694 ;
695 [label="gini = 0.0\nsamples = 1\nvalue = [0, 0, 1, 0, 0, 0, 0, 0, 0, 0]"] ;
694 -> 695 ;
696 [label="gini = 0.0\nsamples = 2\nvalue = [0, 0, 0, 0, 0, 0, 0, 2, 0, 0]"] ;
694 -> 696 ;
697 [label="pixel436 <= 0.5\ngini = 0.0\nsamples = 38\nvalue = [0, 0, 57, 0, 0, 1, 0, 0, 0, 0]"] ;
693 -> 697 ;
698 [label="pixel547 <= 62.5\ngini = 0.4\nsamples = 3\nvalue = [0, 0, 2, 0, 0, 1, 0, 0, 0, 0]"] ;
697 -> 698 ;
699 [label="gini = 0.0\nsamples = 1\nvalue = [0, 0, 0, 0, 0, 1, 0, 0, 0, 0]"] ;
698 -> 699 ;
700 [label="gini = 0.0\nsamples = 2\nvalue = [0, 0, 2, 0, 0, 0, 0, 0, 0, 0]"] ;
698 -> 700 ;
701 [label="gini = 0.0\nsamples = 35\nvalue = [0, 0, 55, 0, 0, 0, 0, 0, 0, 0]"] ;
697 -> 701 ;
702 [label="pixel265 <= 253.0\ngini = 0.4\nsamples = 2\nvalue = [0, 0, 1, 2, 0, 0, 0, 0, 0, 0]"] ;
692 -> 702 ;
703 [label="gini = 0.0\nsamples = 1\nvalue = [0, 0, 0, 2, 0, 0, 0, 0, 0, 0]"] ;
702 -> 703 ;
704 [label="gini = 0.0\nsamples = 1\nvalue = [0, 0, 1, 0, 0, 0, 0, 0, 0, 0]"] ;
702 -> 704 ;
705 [label="gini = 0.0\nsamples = 1\nvalue = [0, 0, 0, 0, 0, 0, 0, 3, 0, 0]"] ;
687 -> 705 ;
706 [label="pixel369 <= 9.0\ngini = 0.5\nsamples = 2\nvalue = [0, 0, 0, 0, 0, 0, 2, 0, 0, 3]"] ;
686 -> 706 ;
707 [label="gini = 0.0\nsamples = 1\nvalue = [0, 0, 0, 0, 0, 0, 0, 0, 0, 3]"] ;
706 -> 707 ;
708 [label="gini = 0.0\nsamples = 1\nvalue = [0, 0, 0, 0, 0, 0, 2, 0, 0, 0]"] ;
706 -> 708 ;
709 [label="pixel552 <= 35.5\ngini = 0.7\nsamples = 6\nvalue = [0, 0, 2, 2, 3, 0, 0, 2, 0, 0]"] ;
685 -> 709 ;
710 [label="pixel300 <= 219.5\ngini = 0.7\nsamples = 5\nvalue = [0, 0, 2, 2, 0, 0, 0, 2, 0, 0]"] ;
709 -> 710 ;
711 [label="gini = 0.0\nsamples = 2\nvalue = [0, 0, 2, 0, 0, 0, 0, 0, 0, 0]"] ;
710 -> 711 ;
712 [label="pixel285 <= 64.0\ngini = 0.5\nsamples = 3\nvalue = [0, 0, 0, 2, 0, 0, 0, 2, 0, 0]"] ;
710 -> 712 ;
713 [label="gini = 0.0\nsamples = 1\nvalue = [0, 0, 0, 2, 0, 0, 0, 0, 0, 0]"] ;
712 -> 713 ;
714 [label="gini = 0.0\nsamples = 2\nvalue = [0, 0, 0, 0, 0, 0, 0, 2, 0, 0]"] ;
712 -> 714 ;
715 [label="gini = 0.0\nsamples = 1\nvalue = [0, 0, 0, 0, 3, 0, 0, 0, 0, 0]"] ;
709 -> 715 ;
716 [label="pixel631 <= 149.5\ngini = 0.4\nsamples = 100\nvalue = [0, 0, 125, 3, 0, 0, 2, 31, 0, 5]"] ;
578 -> 716 ;
717 [label="pixel521 <= 44.5\ngini = 0.3\nsamples = 83\nvalue = [0, 0, 117, 2, 0, 0, 2, 17, 0, 5]"] ;
716 -> 717 ;
718 [label="pixel356 <= 13.5\ngini = 0.6\nsamples = 22\nvalue = [0, 0, 16, 0, 0, 0, 0, 14, 0, 3]"] ;
717 -> 718 ;
719 [label="pixel459 <= 169.5\ngini = 0.4\nsamples = 14\nvalue = [0, 0, 16, 0, 0, 0, 0, 4, 0, 2]"] ;
718 -> 719 ;
720 [label="gini = 0.0\nsamples = 8\nvalue = [0, 0, 13, 0, 0, 0, 0, 0, 0, 0]"] ;
719 -> 720 ;
721 [label="pixel602 <= 101.0\ngini = 0.6\nsamples = 6\nvalue = [0, 0, 3, 0, 0, 0, 0, 4, 0, 2]"] ;
719 -> 721 ;
722 [label="pixel436 <= 133.5\ngini = 0.5\nsamples = 4\nvalue = [0, 0, 3, 0, 0, 0, 0, 0, 0, 2]"] ;
721 -> 722 ;
723 [label="gini = 0.0\nsamples = 1\nvalue = [0, 0, 0, 0, 0, 0, 0, 0, 0, 2]"] ;
722 -> 723 ;
724 [label="gini = 0.0\nsamples = 3\nvalue = [0, 0, 3, 0, 0, 0, 0, 0, 0, 0]"] ;
722 -> 724 ;
725 [label="gini = 0.0\nsamples = 2\nvalue = [0, 0, 0, 0, 0, 0, 0, 4, 0, 0]"] ;
721 -> 725 ;
726 [label="pixel382 <= 123.5\ngini = 0.2\nsamples = 8\nvalue = [0, 0, 0, 0, 0, 0, 0, 10, 0, 1]"] ;
718 -> 726 ;
727 [label="gini = 0.0\nsamples = 1\nvalue = [0, 0, 0, 0, 0, 0, 0, 0, 0, 1]"] ;
726 -> 727 ;
728 [label="gini = 0.0\nsamples = 7\nvalue = [0, 0, 0, 0, 0, 0, 0, 10, 0, 0]"] ;
726 -> 728 ;
729 [label="pixel463 <= 5.0\ngini = 0.2\nsamples = 61\nvalue = [0, 0, 101, 2, 0, 0, 2, 3, 0, 2]"] ;
717 -> 729 ;
730 [label="pixel372 <= 52.0\ngini = 0.6\nsamples = 3\nvalue = [0, 0, 1, 1, 0, 0, 0, 0, 0, 2]"] ;
729 -> 730 ;
731 [label="pixel267 <= 53.5\ngini = 0.5\nsamples = 2\nvalue = [0, 0, 1, 1, 0, 0, 0, 0, 0, 0]"] ;
730 -> 731 ;
732 [label="gini = 0.0\nsamples = 1\nvalue = [0, 0, 0, 1, 0, 0, 0, 0, 0, 0]"] ;
731 -> 732 ;
733 [label="gini = 0.0\nsamples = 1\nvalue = [0, 0, 1, 0, 0, 0, 0, 0, 0, 0]"] ;
731 -> 733 ;
734 [label="gini = 0.0\nsamples = 1\nvalue = [0, 0, 0, 0, 0, 0, 0, 0, 0, 2]"] ;
730 -> 734 ;
735 [label="pixel624 <= 252.5\ngini = 0.1\nsamples = 58\nvalue = [0, 0, 100, 1, 0, 0, 2, 3, 0, 0]"] ;
729 -> 735 ;
736 [label="pixel215 <= 127.5\ngini = 0.1\nsamples = 54\nvalue = [0, 0, 99, 0, 0, 0, 2, 1, 0, 0]"] ;
735 -> 736 ;
737 [label="pixel578 <= 254.5\ngini = 0.0\nsamples = 52\nvalue = [0, 0, 97, 0, 0, 0, 2, 0, 0, 0]"] ;
736 -> 737 ;
738 [label="pixel399 <= 180.5\ngini = 0.0\nsamples = 51\nvalue = [0, 0, 97, 0, 0, 0, 1, 0, 0, 0]"] ;
737 -> 738 ;
739 [label="gini = 0.0\nsamples = 50\nvalue = [0, 0, 97, 0, 0, 0, 0, 0, 0, 0]"] ;
738 -> 739 ;
740 [label="gini = 0.0\nsamples = 1\nvalue = [0, 0, 0, 0, 0, 0, 1, 0, 0, 0]"] ;
738 -> 740 ;
741 [label="gini = 0.0\nsamples = 1\nvalue = [0, 0, 0, 0, 0, 0, 1, 0, 0, 0]"] ;
737 -> 741 ;
742 [label="pixel302 <= 18.0\ngini = 0.4\nsamples = 2\nvalue = [0, 0, 2, 0, 0, 0, 0, 1, 0, 0]"] ;
736 -> 742 ;
743 [label="gini = 0.0\nsamples = 1\nvalue = [0, 0, 0, 0, 0, 0, 0, 1, 0, 0]"] ;
742 -> 743 ;
744 [label="gini = 0.0\nsamples = 1\nvalue = [0, 0, 2, 0, 0, 0, 0, 0, 0, 0]"] ;
742 -> 744 ;
745 [label="pixel149 <= 155.0\ngini = 0.6\nsamples = 4\nvalue = [0, 0, 1, 1, 0, 0, 0, 2, 0, 0]"] ;
735 -> 745 ;
746 [label="gini = 0.0\nsamples = 2\nvalue = [0, 0, 0, 0, 0, 0, 0, 2, 0, 0]"] ;
745 -> 746 ;
747 [label="pixel570 <= 126.5\ngini = 0.5\nsamples = 2\nvalue = [0, 0, 1, 1, 0, 0, 0, 0, 0, 0]"] ;
745 -> 747 ;
748 [label="gini = 0.0\nsamples = 1\nvalue = [0, 0, 0, 1, 0, 0, 0, 0, 0, 0]"] ;
747 -> 748 ;
749 [label="gini = 0.0\nsamples = 1\nvalue = [0, 0, 1, 0, 0, 0, 0, 0, 0, 0]"] ;
747 -> 749 ;
750 [label="pixel573 <= 57.5\ngini = 0.5\nsamples = 17\nvalue = [0, 0, 8, 1, 0, 0, 0, 14, 0, 0]"] ;
716 -> 750 ;
751 [label="pixel627 <= 69.0\ngini = 0.2\nsamples = 11\nvalue = [0, 0, 1, 1, 0, 0, 0, 14, 0, 0]"] ;
750 -> 751 ;
752 [label="pixel657 <= 225.5\ngini = 0.1\nsamples = 10\nvalue = [0, 0, 0, 1, 0, 0, 0, 14, 0, 0]"] ;
751 -> 752 ;
753 [label="gini = 0.0\nsamples = 9\nvalue = [0, 0, 0, 0, 0, 0, 0, 14, 0, 0]"] ;
752 -> 753 ;
754 [label="gini = 0.0\nsamples = 1\nvalue = [0, 0, 0, 1, 0, 0, 0, 0, 0, 0]"] ;
752 -> 754 ;
755 [label="gini = 0.0\nsamples = 1\nvalue = [0, 0, 1, 0, 0, 0, 0, 0, 0, 0]"] ;
751 -> 755 ;
756 [label="gini = 0.0\nsamples = 6\nvalue = [0, 0, 7, 0, 0, 0, 0, 0, 0, 0]"] ;
750 -> 756 ;
757 [label="pixel654 <= 60.5\ngini = 0.4\nsamples = 223\nvalue = [2, 1, 294, 14, 7, 6, 3, 13, 27, 1]"] ;
577 -> 757 ;
758 [label="pixel323 <= 20.5\ngini = 0.2\nsamples = 168\nvalue = [1, 1, 242, 2, 7, 6, 3, 9, 1, 1]"] ;
757 -> 758 ;
759 [label="pixel345 <= 36.5\ngini = 0.1\nsamples = 148\nvalue = [1, 0, 231, 0, 2, 2, 0, 5, 1, 0]"] ;
758 -> 759 ;
760 [label="pixel567 <= 66.0\ngini = 0.1\nsamples = 145\nvalue = [1, 0, 229, 0, 2, 0, 0, 5, 1, 0]"] ;
759 -> 760 ;
761 [label="pixel273 <= 240.5\ngini = 0.4\nsamples = 25\nvalue = [1, 0, 28, 0, 2, 0, 0, 5, 1, 0]"] ;
760 -> 761 ;
762 [label="pixel346 <= 9.5\ngini = 0.3\nsamples = 24\nvalue = [1, 0, 28, 0, 2, 0, 0, 2, 1, 0]"] ;
761 -> 762 ;
763 [label="pixel539 <= 10.5\ngini = 0.3\nsamples = 23\nvalue = [1, 0, 28, 0, 2, 0, 0, 2, 0, 0]"] ;
762 -> 763 ;
764 [label="pixel469 <= 121.0\ngini = 0.5\nsamples = 14\nvalue = [1, 0, 12, 0, 2, 0, 0, 2, 0, 0]"] ;
763 -> 764 ;
765 [label="pixel456 <= 243.0\ngini = 0.3\nsamples = 12\nvalue = [0, 0, 12, 0, 1, 0, 0, 2, 0, 0]"] ;
764 -> 765 ;
766 [label="pixel218 <= 4.0\ngini = 0.2\nsamples = 11\nvalue = [0, 0, 12, 0, 0, 0, 0, 2, 0, 0]"] ;
765 -> 766 ;
767 [label="pixel462 <= 247.0\ngini = 0.1\nsamples = 10\nvalue = [0, 0, 12, 0, 0, 0, 0, 1, 0, 0]"] ;
766 -> 767 ;
768 [label="gini = 0.0\nsamples = 8\nvalue = [0, 0, 10, 0, 0, 0, 0, 0, 0, 0]"] ;
767 -> 768 ;
769 [label="pixel681 <= 2.5\ngini = 0.4\nsamples = 2\nvalue = [0, 0, 2, 0, 0, 0, 0, 1, 0, 0]"] ;
767 -> 769 ;
770 [label="gini = 0.0\nsamples = 1\nvalue = [0, 0, 2, 0, 0, 0, 0, 0, 0, 0]"] ;
769 -> 770 ;
771 [label="gini = 0.0\nsamples = 1\nvalue = [0, 0, 0, 0, 0, 0, 0, 1, 0, 0]"] ;
769 -> 771 ;
772 [label="gini = 0.0\nsamples = 1\nvalue = [0, 0, 0, 0, 0, 0, 0, 1, 0, 0]"] ;
766 -> 772 ;
773 [label="gini = 0.0\nsamples = 1\nvalue = [0, 0, 0, 0, 1, 0, 0, 0, 0, 0]"] ;
765 -> 773 ;
774 [label="pixel581 <= 132.5\ngini = 0.5\nsamples = 2\nvalue = [1, 0, 0, 0, 1, 0, 0, 0, 0, 0]"] ;
764 -> 774 ;
775 [label="gini = 0.0\nsamples = 1\nvalue = [1, 0, 0, 0, 0, 0, 0, 0, 0, 0]"] ;
774 -> 775 ;
776 [label="gini = 0.0\nsamples = 1\nvalue = [0, 0, 0, 0, 1, 0, 0, 0, 0, 0]"] ;
774 -> 776 ;
777 [label="gini = 0.0\nsamples = 9\nvalue = [0, 0, 16, 0, 0, 0, 0, 0, 0, 0]"] ;
763 -> 777 ;
778 [label="gini = 0.0\nsamples = 1\nvalue = [0, 0, 0, 0, 0, 0, 0, 0, 1, 0]"] ;
762 -> 778 ;
779 [label="gini = 0.0\nsamples = 1\nvalue = [0, 0, 0, 0, 0, 0, 0, 3, 0, 0]"] ;
761 -> 779 ;
780 [label="gini = 0.0\nsamples = 120\nvalue = [0, 0, 201, 0, 0, 0, 0, 0, 0, 0]"] ;
760 -> 780 ;
781 [label="pixel521 <= 81.5\ngini = 0.5\nsamples = 3\nvalue = [0, 0, 2, 0, 0, 2, 0, 0, 0, 0]"] ;
759 -> 781 ;
782 [label="gini = 0.0\nsamples = 1\nvalue = [0, 0, 0, 0, 0, 2, 0, 0, 0, 0]"] ;
781 -> 782 ;
783 [label="gini = 0.0\nsamples = 2\nvalue = [0, 0, 2, 0, 0, 0, 0, 0, 0, 0]"] ;
781 -> 783 ;
784 [label="pixel233 <= 110.5\ngini = 0.8\nsamples = 20\nvalue = [0, 1, 11, 2, 5, 4, 3, 4, 0, 1]"] ;
758 -> 784 ;
785 [label="pixel345 <= 4.5\ngini = 0.8\nsamples = 15\nvalue = [0, 1, 3, 2, 5, 4, 3, 4, 0, 1]"] ;
784 -> 785 ;
786 [label="pixel463 <= 106.0\ngini = 0.8\nsamples = 13\nvalue = [0, 1, 3, 2, 0, 4, 3, 4, 0, 1]"] ;
785 -> 786 ;
787 [label="pixel268 <= 172.0\ngini = 0.4\nsamples = 4\nvalue = [0, 0, 0, 2, 0, 4, 0, 0, 0, 0]"] ;
786 -> 787 ;
788 [label="gini = 0.0\nsamples = 1\nvalue = [0, 0, 0, 0, 0, 3, 0, 0, 0, 0]"] ;
787 -> 788 ;
789 [label="pixel186 <= 252.5\ngini = 0.4\nsamples = 3\nvalue = [0, 0, 0, 2, 0, 1, 0, 0, 0, 0]"] ;
787 -> 789 ;
790 [label="gini = 0.0\nsamples = 2\nvalue = [0, 0, 0, 2, 0, 0, 0, 0, 0, 0]"] ;
789 -> 790 ;
791 [label="gini = 0.0\nsamples = 1\nvalue = [0, 0, 0, 0, 0, 1, 0, 0, 0, 0]"] ;
789 -> 791 ;
792 [label="pixel208 <= 191.5\ngini = 0.8\nsamples = 9\nvalue = [0, 1, 3, 0, 0, 0, 3, 4, 0, 1]"] ;
786 -> 792 ;
793 [label="pixel296 <= 161.0\ngini = 0.6\nsamples = 6\nvalue = [0, 1, 3, 0, 0, 0, 3, 0, 0, 0]"] ;
792 -> 793 ;
794 [label="gini = 0.0\nsamples = 2\nvalue = [0, 0, 0, 0, 0, 0, 3, 0, 0, 0]"] ;
793 -> 794 ;
795 [label="pixel382 <= 10.5\ngini = 0.4\nsamples = 4\nvalue = [0, 1, 3, 0, 0, 0, 0, 0, 0, 0]"] ;
793 -> 795 ;
796 [label="gini = 0.0\nsamples = 1\nvalue = [0, 1, 0, 0, 0, 0, 0, 0, 0, 0]"] ;
795 -> 796 ;
797 [label="gini = 0.0\nsamples = 3\nvalue = [0, 0, 3, 0, 0, 0, 0, 0, 0, 0]"] ;
795 -> 797 ;
798 [label="pixel206 <= 4.0\ngini = 0.3\nsamples = 3\nvalue = [0, 0, 0, 0, 0, 0, 0, 4, 0, 1]"] ;
792 -> 798 ;
799 [label="gini = 0.0\nsamples = 1\nvalue = [0, 0, 0, 0, 0, 0, 0, 0, 0, 1]"] ;
798 -> 799 ;
800 [label="gini = 0.0\nsamples = 2\nvalue = [0, 0, 0, 0, 0, 0, 0, 4, 0, 0]"] ;
798 -> 800 ;
801 [label="gini = 0.0\nsamples = 2\nvalue = [0, 0, 0, 0, 5, 0, 0, 0, 0, 0]"] ;
785 -> 801 ;
802 [label="gini = 0.0\nsamples = 5\nvalue = [0, 0, 8, 0, 0, 0, 0, 0, 0, 0]"] ;
784 -> 802 ;
803 [label="pixel182 <= 206.5\ngini = 0.6\nsamples = 55\nvalue = [1, 0, 52, 12, 0, 0, 0, 4, 26, 0]"] ;
757 -> 803 ;
804 [label="pixel432 <= 61.5\ngini = 0.2\nsamples = 10\nvalue = [0, 0, 1, 0, 0, 0, 0, 1, 19, 0]"] ;
803 -> 804 ;
805 [label="pixel623 <= 172.0\ngini = 0.5\nsamples = 2\nvalue = [0, 0, 1, 0, 0, 0, 0, 1, 0, 0]"] ;
804 -> 805 ;
806 [label="gini = 0.0\nsamples = 1\nvalue = [0, 0, 1, 0, 0, 0, 0, 0, 0, 0]"] ;
805 -> 806 ;
807 [label="gini = 0.0\nsamples = 1\nvalue = [0, 0, 0, 0, 0, 0, 0, 1, 0, 0]"] ;
805 -> 807 ;
808 [label="gini = 0.0\nsamples = 8\nvalue = [0, 0, 0, 0, 0, 0, 0, 0, 19, 0]"] ;
804 -> 808 ;
809 [label="pixel179 <= 17.5\ngini = 0.5\nsamples = 45\nvalue = [1, 0, 51, 12, 0, 0, 0, 3, 7, 0]"] ;
803 -> 809 ;
810 [label="pixel273 <= 59.0\ngini = 0.6\nsamples = 8\nvalue = [0, 0, 2, 4, 0, 0, 0, 0, 5, 0]"] ;
809 -> 810 ;
811 [label="pixel209 <= 254.0\ngini = 0.5\nsamples = 4\nvalue = [0, 0, 2, 0, 0, 0, 0, 0, 3, 0]"] ;
810 -> 811 ;
812 [label="pixel628 <= 135.0\ngini = 0.4\nsamples = 3\nvalue = [0, 0, 2, 0, 0, 0, 0, 0, 1, 0]"] ;
811 -> 812 ;
813 [label="gini = 0.0\nsamples = 1\nvalue = [0, 0, 0, 0, 0, 0, 0, 0, 1, 0]"] ;
812 -> 813 ;
814 [label="gini = 0.0\nsamples = 2\nvalue = [0, 0, 2, 0, 0, 0, 0, 0, 0, 0]"] ;
812 -> 814 ;
815 [label="gini = 0.0\nsamples = 1\nvalue = [0, 0, 0, 0, 0, 0, 0, 0, 2, 0]"] ;
811 -> 815 ;
816 [label="pixel293 <= 75.5\ngini = 0.4\nsamples = 4\nvalue = [0, 0, 0, 4, 0, 0, 0, 0, 2, 0]"] ;
810 -> 816 ;
817 [label="gini = 0.0\nsamples = 3\nvalue = [0, 0, 0, 4, 0, 0, 0, 0, 0, 0]"] ;
816 -> 817 ;
818 [label="gini = 0.0\nsamples = 1\nvalue = [0, 0, 0, 0, 0, 0, 0, 0, 2, 0]"] ;
816 -> 818 ;
819 [label="pixel521 <= 134.0\ngini = 0.4\nsamples = 37\nvalue = [1, 0, 49, 8, 0, 0, 0, 3, 2, 0]"] ;
809 -> 819 ;
820 [label="pixel431 <= 238.0\ngini = 0.2\nsamples = 29\nvalue = [0, 0, 43, 1, 0, 0, 0, 3, 2, 0]"] ;
819 -> 820 ;
821 [label="pixel462 <= 49.5\ngini = 0.1\nsamples = 27\nvalue = [0, 0, 43, 1, 0, 0, 0, 1, 0, 0]"] ;
820 -> 821 ;
822 [label="gini = 0.0\nsamples = 1\nvalue = [0, 0, 0, 1, 0, 0, 0, 0, 0, 0]"] ;
821 -> 822 ;
823 [label="pixel649 <= 73.5\ngini = 0.0\nsamples = 26\nvalue = [0, 0, 43, 0, 0, 0, 0, 1, 0, 0]"] ;
821 -> 823 ;
824 [label="gini = 0.0\nsamples = 24\nvalue = [0, 0, 40, 0, 0, 0, 0, 0, 0, 0]"] ;
823 -> 824 ;
825 [label="pixel179 <= 130.0\ngini = 0.4\nsamples = 2\nvalue = [0, 0, 3, 0, 0, 0, 0, 1, 0, 0]"] ;
823 -> 825 ;
826 [label="gini = 0.0\nsamples = 1\nvalue = [0, 0, 3, 0, 0, 0, 0, 0, 0, 0]"] ;
825 -> 826 ;
827 [label="gini = 0.0\nsamples = 1\nvalue = [0, 0, 0, 0, 0, 0, 0, 1, 0, 0]"] ;
825 -> 827 ;
828 [label="pixel429 <= 53.5\ngini = 0.5\nsamples = 2\nvalue = [0, 0, 0, 0, 0, 0, 0, 2, 2, 0]"] ;
820 -> 828 ;
829 [label="gini = 0.0\nsamples = 1\nvalue = [0, 0, 0, 0, 0, 0, 0, 0, 2, 0]"] ;
828 -> 829 ;
830 [label="gini = 0.0\nsamples = 1\nvalue = [0, 0, 0, 0, 0, 0, 0, 2, 0, 0]"] ;
828 -> 830 ;
831 [label="pixel182 <= 253.5\ngini = 0.6\nsamples = 8\nvalue = [1, 0, 6, 7, 0, 0, 0, 0, 0, 0]"] ;
819 -> 831 ;
832 [label="pixel243 <= 213.0\ngini = 0.4\nsamples = 5\nvalue = [1, 0, 1, 7, 0, 0, 0, 0, 0, 0]"] ;
831 -> 832 ;
833 [label="pixel265 <= 105.5\ngini = 0.5\nsamples = 2\nvalue = [1, 0, 1, 0, 0, 0, 0, 0, 0, 0]"] ;
832 -> 833 ;
834 [label="gini = 0.0\nsamples = 1\nvalue = [0, 0, 1, 0, 0, 0, 0, 0, 0, 0]"] ;
833 -> 834 ;
835 [label="gini = 0.0\nsamples = 1\nvalue = [1, 0, 0, 0, 0, 0, 0, 0, 0, 0]"] ;
833 -> 835 ;
836 [label="gini = 0.0\nsamples = 3\nvalue = [0, 0, 0, 7, 0, 0, 0, 0, 0, 0]"] ;
832 -> 836 ;
837 [label="gini = 0.0\nsamples = 3\nvalue = [0, 0, 5, 0, 0, 0, 0, 0, 0, 0]"] ;
831 -> 837 ;
838 [label="pixel387 <= 73.5\ngini = 0.8\nsamples = 143\nvalue = [25, 0, 8, 1, 70, 0, 24, 5, 8, 69]"] ;
576 -> 838 ;
839 [label="pixel235 <= 6.0\ngini = 0.6\nsamples = 105\nvalue = [1, 0, 8, 1, 64, 0, 0, 5, 8, 67]"] ;
838 -> 839 ;
840 [label="pixel154 <= 130.0\ngini = 0.1\nsamples = 47\nvalue = [0, 0, 2, 0, 62, 0, 0, 0, 0, 3]"] ;
839 -> 840 ;
841 [label="pixel570 <= 253.5\ngini = 0.0\nsamples = 44\nvalue = [0, 0, 1, 0, 62, 0, 0, 0, 0, 0]"] ;
840 -> 841 ;
842 [label="gini = 0.0\nsamples = 43\nvalue = [0, 0, 0, 0, 62, 0, 0, 0, 0, 0]"] ;
841 -> 842 ;
843 [label="gini = 0.0\nsamples = 1\nvalue = [0, 0, 1, 0, 0, 0, 0, 0, 0, 0]"] ;
841 -> 843 ;
844 [label="pixel578 <= 241.0\ngini = 0.4\nsamples = 3\nvalue = [0, 0, 1, 0, 0, 0, 0, 0, 0, 3]"] ;
840 -> 844 ;
845 [label="gini = 0.0\nsamples = 1\nvalue = [0, 0, 1, 0, 0, 0, 0, 0, 0, 0]"] ;
844 -> 845 ;
846 [label="gini = 0.0\nsamples = 2\nvalue = [0, 0, 0, 0, 0, 0, 0, 0, 0, 3]"] ;
844 -> 846 ;
847 [label="pixel402 <= 51.5\ngini = 0.4\nsamples = 58\nvalue = [1, 0, 6, 1, 2, 0, 0, 5, 8, 64]"] ;
839 -> 847 ;
848 [label="pixel538 <= 25.0\ngini = 0.3\nsamples = 51\nvalue = [1, 0, 6, 1, 0, 0, 0, 5, 0, 63]"] ;
847 -> 848 ;
849 [label="pixel541 <= 197.0\ngini = 0.2\nsamples = 48\nvalue = [0, 0, 3, 1, 0, 0, 0, 5, 0, 63]"] ;
848 -> 849 ;
850 [label="pixel210 <= 127.0\ngini = 0.1\nsamples = 43\nvalue = [0, 0, 3, 1, 0, 0, 0, 1, 0, 62]"] ;
849 -> 850 ;
851 [label="pixel716 <= 125.5\ngini = 0.6\nsamples = 5\nvalue = [0, 0, 3, 0, 0, 0, 0, 1, 0, 1]"] ;
850 -> 851 ;
852 [label="pixel178 <= 251.5\ngini = 0.4\nsamples = 4\nvalue = [0, 0, 3, 0, 0, 0, 0, 0, 0, 1]"] ;
851 -> 852 ;
853 [label="gini = 0.0\nsamples = 3\nvalue = [0, 0, 3, 0, 0, 0, 0, 0, 0, 0]"] ;
852 -> 853 ;
854 [label="gini = 0.0\nsamples = 1\nvalue = [0, 0, 0, 0, 0, 0, 0, 0, 0, 1]"] ;
852 -> 854 ;
855 [label="gini = 0.0\nsamples = 1\nvalue = [0, 0, 0, 0, 0, 0, 0, 1, 0, 0]"] ;
851 -> 855 ;
856 [label="pixel710 <= 67.5\ngini = 0.0\nsamples = 38\nvalue = [0, 0, 0, 1, 0, 0, 0, 0, 0, 61]"] ;
850 -> 856 ;
857 [label="gini = 0.0\nsamples = 37\nvalue = [0, 0, 0, 0, 0, 0, 0, 0, 0, 61]"] ;
856 -> 857 ;
858 [label="gini = 0.0\nsamples = 1\nvalue = [0, 0, 0, 1, 0, 0, 0, 0, 0, 0]"] ;
856 -> 858 ;
859 [label="pixel382 <= 150.5\ngini = 0.3\nsamples = 5\nvalue = [0, 0, 0, 0, 0, 0, 0, 4, 0, 1]"] ;
849 -> 859 ;
860 [label="gini = 0.0\nsamples = 1\nvalue = [0, 0, 0, 0, 0, 0, 0, 0, 0, 1]"] ;
859 -> 860 ;
861 [label="gini = 0.0\nsamples = 4\nvalue = [0, 0, 0, 0, 0, 0, 0, 4, 0, 0]"] ;
859 -> 861 ;
862 [label="pixel545 <= 126.5\ngini = 0.4\nsamples = 3\nvalue = [1, 0, 3, 0, 0, 0, 0, 0, 0, 0]"] ;
848 -> 862 ;
863 [label="gini = 0.0\nsamples = 1\nvalue = [1, 0, 0, 0, 0, 0, 0, 0, 0, 0]"] ;
862 -> 863 ;
864 [label="gini = 0.0\nsamples = 2\nvalue = [0, 0, 3, 0, 0, 0, 0, 0, 0, 0]"] ;
862 -> 864 ;
865 [label="pixel288 <= 212.5\ngini = 0.4\nsamples = 7\nvalue = [0, 0, 0, 0, 2, 0, 0, 0, 8, 1]"] ;
847 -> 865 ;
866 [label="gini = 0.0\nsamples = 5\nvalue = [0, 0, 0, 0, 0, 0, 0, 0, 8, 0]"] ;
865 -> 866 ;
867 [label="pixel327 <= 209.0\ngini = 0.4\nsamples = 2\nvalue = [0, 0, 0, 0, 2, 0, 0, 0, 0, 1]"] ;
865 -> 867 ;
868 [label="gini = 0.0\nsamples = 1\nvalue = [0, 0, 0, 0, 2, 0, 0, 0, 0, 0]"] ;
867 -> 868 ;
869 [label="gini = 0.0\nsamples = 1\nvalue = [0, 0, 0, 0, 0, 0, 0, 0, 0, 1]"] ;
867 -> 869 ;
870 [label="pixel407 <= 11.0\ngini = 0.6\nsamples = 38\nvalue = [24, 0, 0, 0, 6, 0, 24, 0, 0, 2]"] ;
838 -> 870 ;
871 [label="pixel411 <= 138.5\ngini = 0.5\nsamples = 25\nvalue = [24, 0, 0, 0, 4, 0, 5, 0, 0, 2]"] ;
870 -> 871 ;
872 [label="pixel495 <= 253.5\ngini = 0.2\nsamples = 20\nvalue = [24, 0, 0, 0, 0, 0, 3, 0, 0, 0]"] ;
871 -> 872 ;
873 [label="pixel409 <= 126.5\ngini = 0.1\nsamples = 19\nvalue = [24, 0, 0, 0, 0, 0, 2, 0, 0, 0]"] ;
872 -> 873 ;
874 [label="gini = 0.0\nsamples = 17\nvalue = [24, 0, 0, 0, 0, 0, 0, 0, 0, 0]"] ;
873 -> 874 ;
875 [label="gini = 0.0\nsamples = 2\nvalue = [0, 0, 0, 0, 0, 0, 2, 0, 0, 0]"] ;
873 -> 875 ;
876 [label="gini = 0.0\nsamples = 1\nvalue = [0, 0, 0, 0, 0, 0, 1, 0, 0, 0]"] ;
872 -> 876 ;
877 [label="pixel471 <= 8.5\ngini = 0.6\nsamples = 5\nvalue = [0, 0, 0, 0, 4, 0, 2, 0, 0, 2]"] ;
871 -> 877 ;
878 [label="gini = 0.0\nsamples = 2\nvalue = [0, 0, 0, 0, 4, 0, 0, 0, 0, 0]"] ;
877 -> 878 ;
879 [label="pixel485 <= 126.0\ngini = 0.5\nsamples = 3\nvalue = [0, 0, 0, 0, 0, 0, 2, 0, 0, 2]"] ;
877 -> 879 ;
880 [label="gini = 0.0\nsamples = 1\nvalue = [0, 0, 0, 0, 0, 0, 0, 0, 0, 2]"] ;
879 -> 880 ;
881 [label="gini = 0.0\nsamples = 2\nvalue = [0, 0, 0, 0, 0, 0, 2, 0, 0, 0]"] ;
879 -> 881 ;
882 [label="pixel231 <= 252.5\ngini = 0.2\nsamples = 13\nvalue = [0, 0, 0, 0, 2, 0, 19, 0, 0, 0]"] ;
870 -> 882 ;
883 [label="gini = 0.0\nsamples = 12\nvalue = [0, 0, 0, 0, 0, 0, 19, 0, 0, 0]"] ;
882 -> 883 ;
884 [label="gini = 0.0\nsamples = 1\nvalue = [0, 0, 0, 0, 2, 0, 0, 0, 0, 0]"] ;
882 -> 884 ;
885 [label="pixel471 <= 239.5\ngini = 0.1\nsamples = 841\nvalue = [20, 0, 1313, 2, 2, 3, 30, 0, 10, 2]"] ;
575 -> 885 ;
886 [label="pixel343 <= 40.5\ngini = 0.1\nsamples = 820\nvalue = [14, 0, 1304, 2, 2, 3, 19, 0, 10, 0]"] ;
885 -> 886 ;
887 [label="pixel318 <= 134.0\ngini = 0.0\nsamples = 803\nvalue = [5, 0, 1301, 2, 2, 3, 11, 0, 6, 0]"] ;
886 -> 887 ;
888 [label="pixel329 <= 254.5\ngini = 0.0\nsamples = 792\nvalue = [0, 0, 1301, 2, 2, 2, 4, 0, 6, 0]"] ;
887 -> 888 ;
889 [label="pixel596 <= 0.5\ngini = 0.0\nsamples = 791\nvalue = [0, 0, 1301, 2, 2, 2, 4, 0, 4, 0]"] ;
888 -> 889 ;
890 [label="pixel285 <= 231.5\ngini = 0.1\nsamples = 117\nvalue = [0, 0, 180, 2, 2, 0, 4, 0, 2, 0]"] ;
889 -> 890 ;
891 [label="pixel247 <= 78.5\ngini = 0.1\nsamples = 116\nvalue = [0, 0, 180, 2, 0, 0, 4, 0, 2, 0]"] ;
890 -> 891 ;
892 [label="pixel257 <= 50.0\ngini = 0.1\nsamples = 114\nvalue = [0, 0, 179, 2, 0, 0, 4, 0, 0, 0]"] ;
891 -> 892 ;
893 [label="pixel347 <= 199.0\ngini = 0.0\nsamples = 111\nvalue = [0, 0, 177, 0, 0, 0, 4, 0, 0, 0]"] ;
892 -> 893 ;
894 [label="pixel70 <= 154.0\ngini = 0.0\nsamples = 110\nvalue = [0, 0, 177, 0, 0, 0, 3, 0, 0, 0]"] ;
893 -> 894 ;
895 [label="gini = 0.0\nsamples = 108\nvalue = [0, 0, 176, 0, 0, 0, 0, 0, 0, 0]"] ;
894 -> 895 ;
896 [label="pixel381 <= 50.5\ngini = 0.4\nsamples = 2\nvalue = [0, 0, 1, 0, 0, 0, 3, 0, 0, 0]"] ;
894 -> 896 ;
897 [label="gini = 0.0\nsamples = 1\nvalue = [0, 0, 1, 0, 0, 0, 0, 0, 0, 0]"] ;
896 -> 897 ;
898 [label="gini = 0.0\nsamples = 1\nvalue = [0, 0, 0, 0, 0, 0, 3, 0, 0, 0]"] ;
896 -> 898 ;
899 [label="gini = 0.0\nsamples = 1\nvalue = [0, 0, 0, 0, 0, 0, 1, 0, 0, 0]"] ;
893 -> 899 ;
900 [label="pixel526 <= 112.0\ngini = 0.5\nsamples = 3\nvalue = [0, 0, 2, 2, 0, 0, 0, 0, 0, 0]"] ;
892 -> 900 ;
901 [label="gini = 0.0\nsamples = 2\nvalue = [0, 0, 2, 0, 0, 0, 0, 0, 0, 0]"] ;
900 -> 901 ;
902 [label="gini = 0.0\nsamples = 1\nvalue = [0, 0, 0, 2, 0, 0, 0, 0, 0, 0]"] ;
900 -> 902 ;
903 [label="pixel179 <= 35.0\ngini = 0.4\nsamples = 2\nvalue = [0, 0, 1, 0, 0, 0, 0, 0, 2, 0]"] ;
891 -> 903 ;
904 [label="gini = 0.0\nsamples = 1\nvalue = [0, 0, 0, 0, 0, 0, 0, 0, 2, 0]"] ;
903 -> 904 ;
905 [label="gini = 0.0\nsamples = 1\nvalue = [0, 0, 1, 0, 0, 0, 0, 0, 0, 0]"] ;
903 -> 905 ;
906 [label="gini = 0.0\nsamples = 1\nvalue = [0, 0, 0, 0, 2, 0, 0, 0, 0, 0]"] ;
890 -> 906 ;
907 [label="pixel351 <= 254.5\ngini = 0.0\nsamples = 674\nvalue = [0, 0, 1121, 0, 0, 2, 0, 0, 2, 0]"] ;
889 -> 907 ;
908 [label="pixel293 <= 189.0\ngini = 0.0\nsamples = 671\nvalue = [0, 0, 1119, 0, 0, 2, 0, 0, 0, 0]"] ;
907 -> 908 ;
909 [label="pixel464 <= 1.0\ngini = 0.0\nsamples = 669\nvalue = [0, 0, 1118, 0, 0, 1, 0, 0, 0, 0]"] ;
908 -> 909 ;
910 [label="pixel488 <= 12.0\ngini = 0.0\nsamples = 75\nvalue = [0, 0, 115, 0, 0, 1, 0, 0, 0, 0]"] ;
909 -> 910 ;
911 [label="pixel629 <= 79.0\ngini = 0.2\nsamples = 5\nvalue = [0, 0, 6, 0, 0, 1, 0, 0, 0, 0]"] ;
910 -> 911 ;
912 [label="gini = 0.0\nsamples = 1\nvalue = [0, 0, 0, 0, 0, 1, 0, 0, 0, 0]"] ;
911 -> 912 ;
913 [label="gini = 0.0\nsamples = 4\nvalue = [0, 0, 6, 0, 0, 0, 0, 0, 0, 0]"] ;
911 -> 913 ;
914 [label="gini = 0.0\nsamples = 70\nvalue = [0, 0, 109, 0, 0, 0, 0, 0, 0, 0]"] ;
910 -> 914 ;
915 [label="gini = 0.0\nsamples = 594\nvalue = [0, 0, 1003, 0, 0, 0, 0, 0, 0, 0]"] ;
909 -> 915 ;
916 [label="pixel601 <= 127.0\ngini = 0.5\nsamples = 2\nvalue = [0, 0, 1, 0, 0, 1, 0, 0, 0, 0]"] ;
908 -> 916 ;
917 [label="gini = 0.0\nsamples = 1\nvalue = [0, 0, 1, 0, 0, 0, 0, 0, 0, 0]"] ;
916 -> 917 ;
918 [label="gini = 0.0\nsamples = 1\nvalue = [0, 0, 0, 0, 0, 1, 0, 0, 0, 0]"] ;
916 -> 918 ;
919 [label="pixel186 <= 208.0\ngini = 0.5\nsamples = 3\nvalue = [0, 0, 2, 0, 0, 0, 0, 0, 2, 0]"] ;
907 -> 919 ;
920 [label="gini = 0.0\nsamples = 2\nvalue = [0, 0, 2, 0, 0, 0, 0, 0, 0, 0]"] ;
919 -> 920 ;
921 [label="gini = 0.0\nsamples = 1\nvalue = [0, 0, 0, 0, 0, 0, 0, 0, 2, 0]"] ;
919 -> 921 ;
922 [label="gini = 0.0\nsamples = 1\nvalue = [0, 0, 0, 0, 0, 0, 0, 0, 2, 0]"] ;
888 -> 922 ;
923 [label="pixel660 <= 0.5\ngini = 0.6\nsamples = 11\nvalue = [5, 0, 0, 0, 0, 1, 7, 0, 0, 0]"] ;
887 -> 923 ;
924 [label="gini = 0.0\nsamples = 7\nvalue = [0, 0, 0, 0, 0, 0, 7, 0, 0, 0]"] ;
923 -> 924 ;
925 [label="pixel489 <= 57.0\ngini = 0.3\nsamples = 4\nvalue = [5, 0, 0, 0, 0, 1, 0, 0, 0, 0]"] ;
923 -> 925 ;
926 [label="gini = 0.0\nsamples = 3\nvalue = [5, 0, 0, 0, 0, 0, 0, 0, 0, 0]"] ;
925 -> 926 ;
927 [label="gini = 0.0\nsamples = 1\nvalue = [0, 0, 0, 0, 0, 1, 0, 0, 0, 0]"] ;
925 -> 927 ;
928 [label="pixel600 <= 241.5\ngini = 0.7\nsamples = 17\nvalue = [9, 0, 3, 0, 0, 0, 8, 0, 4, 0]"] ;
886 -> 928 ;
929 [label="pixel575 <= 101.0\ngini = 0.4\nsamples = 9\nvalue = [2, 0, 1, 0, 0, 0, 8, 0, 0, 0]"] ;
928 -> 929 ;
930 [label="pixel455 <= 58.0\ngini = 0.4\nsamples = 2\nvalue = [2, 0, 1, 0, 0, 0, 0, 0, 0, 0]"] ;
929 -> 930 ;
931 [label="gini = 0.0\nsamples = 1\nvalue = [0, 0, 1, 0, 0, 0, 0, 0, 0, 0]"] ;
930 -> 931 ;
932 [label="gini = 0.0\nsamples = 1\nvalue = [2, 0, 0, 0, 0, 0, 0, 0, 0, 0]"] ;
930 -> 932 ;
933 [label="gini = 0.0\nsamples = 7\nvalue = [0, 0, 0, 0, 0, 0, 8, 0, 0, 0]"] ;
929 -> 933 ;
934 [label="pixel568 <= 25.0\ngini = 0.6\nsamples = 8\nvalue = [7, 0, 2, 0, 0, 0, 0, 0, 4, 0]"] ;
928 -> 934 ;
935 [label="pixel181 <= 227.5\ngini = 0.4\nsamples = 3\nvalue = [0, 0, 2, 0, 0, 0, 0, 0, 4, 0]"] ;
934 -> 935 ;
936 [label="gini = 0.0\nsamples = 2\nvalue = [0, 0, 0, 0, 0, 0, 0, 0, 4, 0]"] ;
935 -> 936 ;
937 [label="gini = 0.0\nsamples = 1\nvalue = [0, 0, 2, 0, 0, 0, 0, 0, 0, 0]"] ;
935 -> 937 ;
938 [label="gini = 0.0\nsamples = 5\nvalue = [7, 0, 0, 0, 0, 0, 0, 0, 0, 0]"] ;
934 -> 938 ;
939 [label="pixel464 <= 202.0\ngini = 0.7\nsamples = 21\nvalue = [6, 0, 9, 0, 0, 0, 11, 0, 0, 2]"] ;
885 -> 939 ;
940 [label="pixel630 <= 189.0\ngini = 0.6\nsamples = 12\nvalue = [6, 0, 0, 0, 0, 0, 11, 0, 0, 2]"] ;
939 -> 940 ;
941 [label="pixel495 <= 124.5\ngini = 0.3\nsamples = 9\nvalue = [0, 0, 0, 0, 0, 0, 11, 0, 0, 2]"] ;
940 -> 941 ;
942 [label="gini = 0.0\nsamples = 7\nvalue = [0, 0, 0, 0, 0, 0, 10, 0, 0, 0]"] ;
941 -> 942 ;
943 [label="pixel260 <= 253.5\ngini = 0.4\nsamples = 2\nvalue = [0, 0, 0, 0, 0, 0, 1, 0, 0, 2]"] ;
941 -> 943 ;
944 [label="gini = 0.0\nsamples = 1\nvalue = [0, 0, 0, 0, 0, 0, 0, 0, 0, 2]"] ;
943 -> 944 ;
945 [label="gini = 0.0\nsamples = 1\nvalue = [0, 0, 0, 0, 0, 0, 1, 0, 0, 0]"] ;
943 -> 945 ;
946 [label="gini = 0.0\nsamples = 3\nvalue = [6, 0, 0, 0, 0, 0, 0, 0, 0, 0]"] ;
940 -> 946 ;
947 [label="gini = 0.0\nsamples = 9\nvalue = [0, 0, 9, 0, 0, 0, 0, 0, 0, 0]"] ;
939 -> 947 ;
948 [label="pixel234 <= 0.5\ngini = 0.6\nsamples = 4033\nvalue = [6, 3372, 936, 1477, 85, 75, 71, 152, 155, 72]"] ;
2 -> 948 ;
949 [label="pixel382 <= 2.5\ngini = 0.5\nsamples = 3037\nvalue = [3, 3341, 509, 634, 78, 44, 44, 30, 97, 17]"] ;
948 -> 949 ;
950 [label="pixel551 <= 1.0\ngini = 0.3\nsamples = 2501\nvalue = [1, 3201, 337, 277, 3, 32, 25, 12, 43, 8]"] ;
949 -> 950 ;
951 [label="pixel376 <= 197.5\ngini = 0.2\nsamples = 2245\nvalue = [0, 3193, 118, 137, 3, 31, 5, 12, 37, 8]"] ;
950 -> 951 ;
952 [label="pixel150 <= 4.5\ngini = 0.1\nsamples = 2148\nvalue = [0, 3154, 104, 63, 2, 23, 3, 12, 33, 8]"] ;
951 -> 952 ;
953 [label="pixel437 <= 111.0\ngini = 0.1\nsamples = 2068\nvalue = [0, 3147, 23, 25, 2, 23, 3, 8, 29, 8]"] ;
952 -> 953 ;
954 [label="pixel485 <= 171.0\ngini = 0.1\nsamples = 2042\nvalue = [0, 3143, 17, 13, 0, 17, 2, 7, 22, 6]"] ;
953 -> 954 ;
955 [label="pixel538 <= 43.5\ngini = 0.0\nsamples = 2017\nvalue = [0, 3127, 8, 13, 0, 16, 2, 5, 13, 6]"] ;
954 -> 955 ;
956 [label="pixel430 <= 179.0\ngini = 0.0\nsamples = 2004\nvalue = [0, 3126, 8, 11, 0, 2, 2, 5, 10, 6]"] ;
955 -> 956 ;
957 [label="pixel179 <= 138.5\ngini = 0.0\nsamples = 2001\nvalue = [0, 3126, 6, 10, 0, 2, 1, 5, 10, 6]"] ;
956 -> 957 ;
958 [label="pixel345 <= 3.0\ngini = 0.0\nsamples = 1994\nvalue = [0, 3121, 5, 7, 0, 2, 1, 2, 10, 6]"] ;
957 -> 958 ;
959 [label="pixel273 <= 230.0\ngini = 0.0\nsamples = 1993\nvalue = [0, 3121, 5, 7, 0, 2, 1, 2, 10, 3]"] ;
958 -> 959 ;
960 [label="pixel522 <= 17.0\ngini = 0.0\nsamples = 1992\nvalue = [0, 3121, 5, 7, 0, 0, 1, 2, 10, 3]"] ;
959 -> 960 ;
961 [label="pixel327 <= 164.5\ngini = 0.0\nsamples = 1987\nvalue = [0, 3120, 3, 5, 0, 0, 1, 1, 10, 3]"] ;
960 -> 961 ;
962 [label="pixel403 <= 168.5\ngini = 0.0\nsamples = 1985\nvalue = [0, 3118, 3, 5, 0, 0, 1, 1, 8, 3]"] ;
961 -> 962 ;
963 [label="pixel272 <= 63.5\ngini = 0.0\nsamples = 1979\nvalue = [0, 3115, 3, 5, 0, 0, 1, 1, 7, 0]"] ;
962 -> 963 ;
964 [label="pixel98 <= 210.0\ngini = 0.0\nsamples = 1928\nvalue = [0, 3045, 3, 5, 0, 0, 1, 1, 3, 0]"] ;
963 -> 964 ;
965 [label="pixel520 <= 253.5\ngini = 0.0\nsamples = 1927\nvalue = [0, 3045, 2, 5, 0, 0, 1, 1, 3, 0]"] ;
964 -> 965 ;
